{"learner":{"attributes":{"best_iteration":"59","best_msg":"[60]\ttrain-auc:0.772101\ttest-auc:0.742906","best_ntreelimit":"60","best_score":"0.74290599270811564","niter":"59"},"feature_names":["REV328","BC01S","AT104S","REV112","AT34B","BC20S","ALL255","G051S","FI33S_LG","AGG1123","RI31S","MNPMAG01","RET84","ALL253","AGG324","AT09SF","RI201S","BALMAG03_BG","TRANBAL21","BALMAG01","TELCO_AGG9101","AT29S","REV84","AU51A","RLE907","LL34S","FU20S","SE21S","ALL231","BALMAG04","BI01S","BKC235","RI201S_BG","RE12S","RET112","OF01S","IN34S","LMD34S","TEL27S","PAYMNT02"],"feature_types":[],"gradient_booster":{"model":{"gbtree_model_param":{"num_parallel_tree":"1","num_trees":"60","size_leaf_vector":"0"},"tree_info":[0,0,0,0,0,0,0,0,0,0,0,0,0,0,0,0,0,0,0,0,0,0,0,0,0,0,0,0,0,0,0,0,0,0,0,0,0,0,0,0,0,0,0,0,0,0,0,0,0,0,0,0,0,0,0,0,0,0,0,0],"trees":[{"base_weights":[1.2305505E0,9.334387E-1,1.4729757E0,1.0485009E0,4.9420822E-1,1.6601009E0,1.2275038E0,1.2475073E0,8.221955E-1,8.850779E-1,2.9214466E-1,1.6963934E0,1.2164834E0,1.3710182E0,9.7622067E-1,1.3257188E0,9.847645E-1,1.1035169E0,6.641785E-1,7.031652E-1,1.1485158E0,1.837647E-1,5.5419964E-1,1.7357944E0,1.4643627E0,7.512349E-1,1.3508425E0,9.0871805E-1,1.434663E0,7.1189654E-1,1.1383648E0],"categories":[],"categories_nodes":[],"categories_segments":[],"categories_sizes":[],"default_left":[1,1,1,1,1,1,1,1,1,1,1,1,1,1,1,0,0,0,0,0,0,0,0,0,0,0,0,0,0,0,0],"id":0,"left_children":[1,3,5,7,9,11,13,15,17,19,21,23,25,27,29,-1,-1,-1,-1,-1,-1,-1,-1,-1,-1,-1,-1,-1,-1,-1,-1],"loss_changes":[1.8055781E3,5.6924316E2,6.33959E2,4.0190527E2,1.8466412E2,1.25947266E2,2.1524805E2,9.748486E1,1.8560645E2,3.811487E1,4.3771393E1,6.599414E1,3.6956543E1,1.1171973E2,9.297754E1,0E0,0E0,0E0,0E0,0E0,0E0,0E0,0E0,0E0,0E0,0E0,0E0,0E0,0E0,0E0,0E0],"parents":[2147483647,0,0,1,1,2,2,3,3,4,4,5,5,6,6,7,7,8,8,9,9,10,10,11,11,12,12,13,13,14,14],"right_children":[2,4,6,8,10,12,14,16,18,20,22,24,26,28,30,-1,-1,-1,-1,-1,-1,-1,-1,-1,-1,-1,-1,-1,-1,-1,-1],"split_conditions":[1.2935345E0,1.5E0,2.15E1,3.15E1,1.85E1,1.5E0,7.65E1,8.95E1,7.05E1,4.5E0,7.721793E0,8.35E1,4.5E0,1.6296552E-1,4.9673276E0,2.6514375E-1,1.9695291E-1,2.207034E-1,1.328357E-1,1.4063303E-1,2.2970317E-1,3.675294E-2,1.10839926E-1,3.4715888E-1,2.9287255E-1,1.5024698E-1,2.701685E-1,1.817436E-1,2.8693262E-1,1.4237931E-1,2.2767296E-1],"split_indices":[0,7,2,2,2,7,4,4,4,1,8,4,1,6,9,0,0,0,0,0,0,0,0,0,0,0,0,0,0,0,0],"split_type":[0,0,0,0,0,0,0,0,0,0,0,0,0,0,0,0,0,0,0,0,0,0,0,0,0,0,0,0,0,0,0],"sum_hessian":[2.5069475E4,1.12644E4,1.3805075E4,8.926E3,2.3384E3,7.833275E3,5.9718E3,4.749275E3,4.176725E3,7.968E2,1.5416E3,7.2407E3,5.92575E2,3.80075E3,2.17105E3,3.6596E3,1.089675E3,1.5020751E3,2.67465E3,4.715E2,3.253E2,1.090675E3,4.5092502E2,6.189225E3,1.051475E3,1.329E2,4.5967502E2,4.60075E2,3.340675E3,8.2560004E2,1.34545E3],"tree_param":{"num_deleted":"0","num_feature":"40","num_nodes":"31","size_leaf_vector":"0"}},{"base_weights":[1.0028744E0,7.822135E-1,1.2554685E0,8.8166827E-1,3.5246682E-1,1.3911909E0,1.0520922E0,1.0902355E0,7.041854E-1,5.971107E-1,2.1506825E-1,1.4271693E0,1.0438627E0,1.2647413E0,8.8309264E-1,9.341608E-1,1.2100314E0,5.5441636E-1,8.6844814E-1,4.6893987E-1,8.4410685E-1,9.810005E-2,4.2414665E-1,1.2767805E0,1.4890879E0,1.1406004E0,7.023245E-1,1.3427231E0,1.1110629E0,4.7287068E-1,9.6464616E-1],"categories":[],"categories_nodes":[],"categories_segments":[],"categories_sizes":[],"default_left":[1,1,1,1,1,1,1,1,1,1,1,1,1,1,1,0,0,0,0,0,0,0,0,0,0,0,0,0,0,0,0],"id":1,"left_children":[1,3,5,7,9,11,13,15,17,19,21,23,25,27,29,-1,-1,-1,-1,-1,-1,-1,-1,-1,-1,-1,-1,-1,-1,-1,-1],"loss_changes":[1.3738535E3,5.6229736E2,3.1712305E2,3.9542773E2,8.3101746E1,8.601074E1,1.6523145E2,9.173877E1,1.4196411E2,2.811142E1,3.8719254E1,5.800293E1,2.1312866E1,2.4285645E1,8.571802E1,0E0,0E0,0E0,0E0,0E0,0E0,0E0,0E0,0E0,0E0,0E0,0E0,0E0,0E0,0E0,0E0],"parents":[2147483647,0,0,1,1,2,2,3,3,4,4,5,5,6,6,7,7,8,8,9,9,10,10,11,11,12,12,13,13,14,14],"right_children":[2,4,6,8,10,12,14,16,18,20,22,24,26,28,30,-1,-1,-1,-1,-1,-1,-1,-1,-1,-1,-1,-1,-1,-1,-1,-1],"split_conditions":[5.5E0,5E-1,1.85E1,6.65E1,6.45E1,1.5E0,7.05E1,2.65E1,5E-1,1.3465518E-2,7.1926727E0,2.0056033E0,1.45E1,9.5E0,3.2313793E0,1.8683217E-1,2.4200629E-1,1.1088327E-1,1.7368963E-1,9.3787976E-2,1.6882138E-1,1.962001E-2,8.482933E-2,2.553561E-1,2.978176E-1,2.2812009E-1,1.404649E-1,2.6854464E-1,2.2221258E-1,9.457414E-2,1.9292924E-1],"split_indices":[1,7,2,4,4,7,4,5,22,6,8,0,2,15,9,0,0,0,0,0,0,0,0,0,0,0,0,0,0,0,0],"split_type":[0,0,0,0,0,0,0,0,0,0,0,0,0,0,0,0,0,0,0,0,0,0,0,0,0,0,0,0,0,0,0],"sum_hessian":[2.4650045E4,1.3156832E4,1.1493214E4,1.0684144E4,2.4726885E3,6.8928506E3,4.6003633E3,4.9117476E3,5.772396E3,8.8917535E2,1.5835131E3,6.2456484E3,6.472021E2,2.0368872E3,2.563476E3,2.1332056E3,2.7785417E3,3.019593E3,2.7528027E3,5.855563E2,3.0361905E2,1.01552716E3,5.679859E2,1.8219944E3,4.423654E3,5.042031E2,1.42999E2,1.3508357E3,6.860516E2,4.252104E2,2.1382656E3],"tree_param":{"num_deleted":"0","num_feature":"40","num_nodes":"31","size_leaf_vector":"0"}},{"base_weights":[8.373469E-1,6.283599E-1,1.051716E0,8.345388E-1,4.8099732E-1,1.1687471E0,8.207169E-1,9.081654E-1,5.799137E-1,5.698171E-1,1.2554298E-1,1.200103E0,8.039676E-1,1.0098081E0,6.8225193E-1,8.2127976E-1,1.1196773E0,4.7777686E-1,8.65247E-1,6.749029E-1,3.7877136E-1,1.9401E-1,-1.7219454E-1,1.2400526E0,9.74858E-1,1.0012366E0,5.72854E-1,5.1348954E-1,1.079542E0,4.7678256E-1,8.2019544E-1],"categories":[],"categories_nodes":[],"categories_segments":[],"categories_sizes":[],"default_left":[1,1,1,1,1,1,1,1,1,1,1,1,1,1,1,0,0,0,0,0,0,0,0,0,0,0,0,0,0,0,0],"id":2,"left_children":[1,3,5,7,9,11,13,15,17,19,21,23,25,27,29,-1,-1,-1,-1,-1,-1,-1,-1,-1,-1,-1,-1,-1,-1,-1,-1],"loss_changes":[1.0634316E3,3.6517432E2,3.1670703E2,9.387622E1,2.2131079E2,8.8875E1,1.0311401E2,7.133716E1,3.271524E1,1.1257349E2,2.857443E1,6.434082E1,2.8023651E1,5.7595337E1,6.44447E1,0E0,0E0,0E0,0E0,0E0,0E0,0E0,0E0,0E0,0E0,0E0,0E0,0E0,0E0,0E0,0E0],"parents":[2147483647,0,0,1,1,2,2,3,3,4,4,5,5,6,6,7,7,8,8,9,9,10,10,11,11,12,12,13,13,14,14],"right_children":[2,4,6,8,10,12,14,16,18,20,22,24,26,28,30,-1,-1,-1,-1,-1,-1,-1,-1,-1,-1,-1,-1,-1,-1,-1,-1],"split_conditions":[1.5898275E0,2.35E1,2.65E1,5E-1,1.5E0,1.5E0,6.15E1,7.901724E0,1.1940517E0,3.345E2,7.45E1,8.35E1,1.45E1,4.5E0,4.9673276E0,1.6425596E-1,2.2393547E-1,9.555537E-2,1.730494E-1,1.3498059E-1,7.575428E-2,3.8802E-2,-3.4438908E-2,2.4801052E-1,1.949716E-1,2.0024732E-1,1.145708E-1,1.0269791E-1,2.1590841E-1,9.535652E-2,1.6403909E-1],"split_indices":[0,2,2,7,7,7,4,8,31,11,25,4,2,3,9,0,0,0,0,0,0,0,0,0,0,0,0,0,0,0,0],"split_type":[0,0,0,0,0,0,0,0,0,0,0,0,0,0,0,0,0,0,0,0,0,0,0,0,0,0,0,0,0,0,0],"sum_hessian":[2.3738447E4,1.2020275E4,1.1718171E4,5.0101113E3,7.010164E3,7.7775264E3,3.9406448E3,3.8861826E3,1.1239287E3,5.6086294E3,1.4015349E3,7.1617285E3,6.157975E2,1.6655848E3,2.2750598E3,2.754895E3,1.1312877E3,8.278212E2,2.9610745E2,3.618196E3,1.9904331E3,1.139545E3,2.619899E2,6.082572E3,1.0791569E3,3.320794E2,2.8371808E2,2.0527673E2,1.4603081E3,9.14006E2,1.361054E3],"tree_param":{"num_deleted":"0","num_feature":"40","num_nodes":"31","size_leaf_vector":"0"}},{"base_weights":[7.071106E-1,5.233576E-1,9.299479E-1,6.908507E-1,3.5289398E-1,1.0577829E0,7.484335E-1,4.9762937E-1,8.1926936E-1,2.8739244E-1,6.7551357E-1,8.7276703E-1,1.128701E0,5.582055E-1,9.1239154E-1,7.461568E-1,3.236801E-1,7.162575E-1,1.0268655E0,1.659622E-1,4.4407156E-1,3.7743878E-1,8.077953E-1,9.152086E-1,4.2816216E-1,1.058432E0,1.2325162E0,2.3084071E-1,6.5422946E-1,9.5824236E-1,4.6957934E-1],"categories":[],"categories_nodes":[],"categories_segments":[],"categories_sizes":[],"default_left":[1,1,1,1,1,1,1,1,1,1,1,1,1,1,1,0,0,0,0,0,0,0,0,0,0,0,0,0,0,0,0],"id":3,"left_children":[1,3,5,7,9,11,13,15,17,19,21,23,25,27,29,-1,-1,-1,-1,-1,-1,-1,-1,-1,-1,-1,-1,-1,-1,-1,-1],"loss_changes":[9.2706836E2,3.5427783E2,2.3736328E2,1.5526807E2,1.2994586E2,7.869092E1,1.3184302E2,1.0801752E2,8.033887E1,9.725687E1,4.0891052E1,3.1358887E1,3.1547852E1,6.1522705E1,4.6065063E1,0E0,0E0,0E0,0E0,0E0,0E0,0E0,0E0,0E0,0E0,0E0,0E0,0E0,0E0,0E0,0E0],"parents":[2147483647,0,0,1,1,2,2,3,3,4,4,5,5,6,6,7,7,8,8,9,9,10,10,11,11,12,12,13,13,14,14],"right_children":[2,4,6,8,10,12,14,16,18,20,22,24,26,28,30,-1,-1,-1,-1,-1,-1,-1,-1,-1,-1,-1,-1,-1,-1,-1,-1],"split_conditions":[5.5E0,7.25E1,1.85E1,1.7636207E-1,8.422051E0,9.5E0,5E-1,-5E-1,7.476293E0,5E-1,2.025E-1,2.280862E-1,7.825431E0,6.1189656E0,1.5E0,1.4923136E-1,6.473602E-2,1.4325151E-1,2.053731E-1,3.319244E-2,8.881431E-2,7.5487755E-2,1.6155906E-1,1.8304172E-1,8.5632436E-2,2.116864E-1,2.4650323E-1,4.6168145E-2,1.3084589E-1,1.9164847E-1,9.391587E-2],"split_indices":[1,4,2,6,8,3,22,6,8,22,6,14,8,9,7,0,0,0,0,0,0,0,0,0,0,0,0,0,0,0,0],"split_type":[0,0,0,0,0,0,0,0,0,0,0,0,0,0,0,0,0,0,0,0,0,0,0,0,0,0,0,0,0,0,0],"sum_hessian":[2.2641764E4,1.2409275E4,1.0232488E4,6.2590425E3,6.150233E3,6.0038086E3,4.2286797E3,2.4991626E3,3.7598801E3,5.1124165E3,1.0378163E3,1.6639141E3,4.3398945E3,1.9576864E3,2.2709934E3,1.0288822E3,1.4702804E3,2.5131653E3,1.2467148E3,2.8803083E3,2.2321082E3,3.191043E2,7.187119E2,1.5188335E3,1.4508057E2,2.58861E3,1.7512844E3,4.4407648E2,1.5136099E3,2.0578162E3,2.1317723E2],"tree_param":{"num_deleted":"0","num_feature":"40","num_nodes":"31","size_leaf_vector":"0"}},{"base_weights":[5.995671E-1,4.101638E-1,7.923804E-1,6.12197E-1,2.9825214E-1,9.484114E-1,6.337722E-1,5.1067036E-1,7.9507744E-1,3.6874506E-1,2.5358416E-2,6.989522E-1,1.0086609E0,5.122491E-1,8.212996E-1,6.060273E-1,2.8449625E-1,5.2169114E-1,8.588833E-1,2.3161018E-1,5.100712E-1,9.578824E-2,-2.2657786E-1,5.4132783E-1,9.2744666E-1,9.131299E-1,1.0935411E0,1.8348071E-1,5.7063866E-1,9.096028E-1,5.958864E-1],"categories":[],"categories_nodes":[],"categories_segments":[],"categories_sizes":[],"default_left":[1,1,1,1,1,1,1,1,1,1,1,1,1,1,1,0,0,0,0,0,0,0,0,0,0,0,0,0,0,0,0],"id":4,"left_children":[1,3,5,7,9,11,13,15,17,19,21,23,25,27,29,-1,-1,-1,-1,-1,-1,-1,-1,-1,-1,-1,-1,-1,-1,-1,-1],"loss_changes":[7.861792E2,2.455332E2,2.6395752E2,7.183948E1,1.3444781E2,8.075928E1,1.2052588E2,5.3672974E1,2.4059753E1,1.07632935E2,2.5460817E1,3.7638397E1,3.503369E1,6.1615967E1,4.1354248E1,0E0,0E0,0E0,0E0,0E0,0E0,0E0,0E0,0E0,0E0,0E0,0E0,0E0,0E0,0E0,0E0],"parents":[2147483647,0,0,1,1,2,2,3,3,4,4,5,5,6,6,7,7,8,8,9,9,10,10,11,11,12,12,13,13,14,14],"right_children":[2,4,6,8,10,12,14,16,18,20,22,24,26,28,30,-1,-1,-1,-1,-1,-1,-1,-1,-1,-1,-1,-1,-1,-1,-1,-1],"split_conditions":[9.5E0,2.05E1,1.95E1,5.0415516E-1,1.5E0,1.21775866E-1,2.9824483E0,8.55E1,3.2543105E-1,6.359914E0,3.95E1,7.234914E0,4.2193966E0,4.5372415E-1,6.45E1,1.21205464E-1,5.689925E-2,1.0433823E-1,1.7177667E-1,4.6322037E-2,1.0201424E-1,1.9157648E-2,-4.5315575E-2,1.0826557E-1,1.8548934E-1,1.82626E-1,2.1870823E-1,3.6696143E-2,1.1412773E-1,1.8192057E-1,1.1917728E-1],"split_indices":[3,2,2,18,7,13,0,4,0,8,25,8,0,0,25,0,0,0,0,0,0,0,0,0,0,0,0,0,0,0,0],"split_type":[0,0,0,0,0,0,0,0,0,0,0,0,0,0,0,0,0,0,0,0,0,0,0,0,0,0,0,0,0,0,0],"sum_hessian":[2.1528535E4,1.0860433E4,1.0668103E4,3.871269E3,6.989164E3,5.377539E3,5.2905635E3,2.4895173E3,1.3817516E3,5.5543296E3,1.4348345E3,1.0463229E3,4.3312163E3,3.2104238E3,2.0801396E3,1.7510863E3,7.3843097E2,2.616121E2,1.1201395E3,2.8190923E3,2.7352373E3,1.121419E3,3.134156E2,6.19346E2,4.2697684E2,2.03819E3,2.2930261E3,4.8425085E2,2.7261729E3,1.4944535E3,5.85686E2],"tree_param":{"num_deleted":"0","num_feature":"40","num_nodes":"31","size_leaf_vector":"0"}},{"base_weights":[5.0833386E-1,3.682166E-1,7.418882E-1,5.5651414E-1,2.60087E-1,8.923149E-1,5.607194E-1,3.678733E-1,6.9918233E-1,9.486464E-2,3.7869337E-1,9.2757386E-1,5.916513E-1,7.5274646E-1,4.2568395E-1,5.926796E-1,1.926573E-1,5.748993E-1,8.468752E-1,2.6689115E-1,-1.0352397E-1,4.5627716E-1,6.967054E-2,8.7811315E-1,1.0961431E0,6.4650863E-1,-1.4163491E-1,7.8867537E-1,2.2037505E-1,4.68707E-1,-1.8277864E-1],"categories":[],"categories_nodes":[],"categories_segments":[],"categories_sizes":[],"default_left":[1,1,1,1,1,1,1,1,1,1,1,1,1,1,1,0,0,0,0,0,0,0,0,0,0,0,0,0,0,0,0],"id":5,"left_children":[1,3,5,7,9,11,13,15,17,19,21,23,25,27,29,-1,-1,-1,-1,-1,-1,-1,-1,-1,-1,-1,-1,-1,-1,-1,-1],"loss_changes":[6.7013086E2,2.605923E2,2.0921924E2,1.2562793E2,1.593291E2,4.4421875E1,9.029993E1,7.9185974E1,4.8748047E1,1.1596598E2,1.1346918E2,3.1220459E1,1.7733032E1,2.7487305E1,5.3556732E1,0E0,0E0,0E0,0E0,0E0,0E0,0E0,0E0,0E0,0E0,0E0,0E0,0E0,0E0,0E0,0E0],"parents":[2147483647,0,0,1,1,2,2,3,3,4,4,5,5,6,6,7,7,8,8,9,9,10,10,11,11,12,12,13,13,14,14],"right_children":[2,4,6,8,10,12,14,16,18,20,22,24,26,28,30,-1,-1,-1,-1,-1,-1,-1,-1,-1,-1,-1,-1,-1,-1,-1,-1],"split_conditions":[6.5E0,6.05E1,7.15E1,1.7779312E-1,1.8166897E0,5E-1,1.55E1,-5E-1,6.7128277E0,3.5E0,5E-1,2.395E2,3.635E2,2.4827588E-1,4.135E2,1.1853593E-1,3.8531464E-2,1.1497986E-1,1.6937505E-1,5.337823E-2,-2.0704795E-2,9.1255434E-2,1.3934108E-2,1.7562263E-1,2.1922863E-1,1.2930173E-1,-2.8326983E-2,1.5773508E-1,4.407501E-2,9.37414E-2,-3.655573E-2],"split_indices":[1,4,4,6,9,7,2,6,8,21,7,5,19,14,19,0,0,0,0,0,0,0,0,0,0,0,0,0,0,0,0],"split_type":[0,0,0,0,0,0,0,0,0,0,0,0,0,0,0,0,0,0,0,0,0,0,0,0,0,0,0,0,0,0,0],"sum_hessian":[2.0478469E4,1.2799707E4,7.678763E3,4.668893E3,8.1308135E3,4.195155E3,3.4836082E3,2.0106517E3,2.6582415E3,3.397791E3,4.7330225E3,3.7546687E3,4.404862E2,1.4381306E3,2.0454774E3,8.806011E2,1.1300507E3,1.4437389E3,1.2145024E3,1.8198187E3,1.5779724E3,3.783153E3,9.498693E2,2.903283E3,8.5138586E2,4.098471E2,3.063911E1,1.3471615E3,9.0969154E1,1.9104274E3,1.3505011E2],"tree_param":{"num_deleted":"0","num_feature":"40","num_nodes":"31","size_leaf_vector":"0"}},{"base_weights":[4.3031117E-1,3.2040167E-1,6.994388E-1,4.2621863E-1,1.6206019E-1,2.9033774E-1,7.489742E-1,4.8936605E-1,1.8249114E-1,2.6034108E-1,-5.6213696E-2,4.5204198E-1,-1.5246336E-1,7.909908E-1,3.2670572E-1,4.0629965E-1,6.770346E-1,1.5459368E-1,7.629192E-1,1.1189147E-1,3.8170862E-1,5.097813E-1,-9.9874355E-2,5.4536466E-2,6.0068166E-1,-3.314727E-1,7.7574134E-1,8.509727E-1,5.786062E-1,1.6495647E-1,7.380555E-1],"categories":[],"categories_nodes":[],"categories_segments":[],"categories_sizes":[],"default_left":[1,1,1,1,1,1,1,1,1,1,1,1,1,1,1,0,0,0,0,0,0,0,0,0,0,0,0,0,0,0,0],"id":6,"left_children":[1,3,5,7,9,11,13,15,17,19,21,23,25,27,29,-1,-1,-1,-1,-1,-1,-1,-1,-1,-1,-1,-1,-1,-1,-1,-1],"loss_changes":[5.773147E2,2.3219312E2,1.1466626E2,1.2783838E2,1.190977E2,4.378572E1,8.953906E1,1.0281958E2,2.766425E1,6.896231E1,4.2593567E1,2.6454605E1,2.7193485E1,5.8442627E1,3.038889E1,0E0,0E0,0E0,0E0,0E0,0E0,0E0,0E0,0E0,0E0,0E0,0E0,0E0,0E0,0E0,0E0],"parents":[2147483647,0,0,1,1,2,2,3,3,4,4,5,5,6,6,7,7,8,8,9,9,10,10,11,11,12,12,13,13,14,14],"right_children":[2,4,6,8,10,12,14,16,18,20,22,24,26,28,30,-1,-1,-1,-1,-1,-1,-1,-1,-1,-1,-1,-1,-1,-1,-1,-1],"split_conditions":[3.0657587E0,3.55E1,3.25E1,1.5E0,1.85E1,4.5E0,5E-1,7.832431E0,7.35E1,5.4435515E0,1.375E2,4.5E0,8.293966E0,7.85E1,8.007448E0,8.125993E-2,1.3540693E-1,3.0918736E-2,1.5258384E-1,2.2378294E-2,7.6341726E-2,1.0195626E-1,-1.997487E-2,1.0907293E-2,1.20136335E-1,-6.629454E-2,1.5514827E-1,1.7019455E-1,1.1572124E-1,3.2991294E-2,1.4761111E-1],"split_indices":[0,2,5,7,10,21,7,8,26,8,16,3,8,4,8,0,0,0,0,0,0,0,0,0,0,0,0,0,0,0,0],"split_type":[0,0,0,0,0,0,0,0,0,0,0,0,0,0,0,0,0,0,0,0,0,0,0,0,0,0,0,0,0,0,0],"sum_hessian":[1.9518047E4,1.3858524E4,5.6595234E3,8.30695E3,5.551574E3,6.113335E2,5.04819E3,6.597494E3,1.7094558E3,3.8279973E3,1.723577E3,4.478182E2,1.6351527E2,4.591266E3,4.5692365E2,4.573449E3,2.0240453E3,1.6311594E3,7.829641E1,1.7219827E3,2.1060146E3,1.23366264E2,1.6002107E3,1.2192236E2,3.2589584E2,1.371244E2,2.6390871E1,3.5799592E3,1.0113069E3,3.2804883E2,1.288748E2],"tree_param":{"num_deleted":"0","num_feature":"40","num_nodes":"31","size_leaf_vector":"0"}},{"base_weights":[3.6255762E-1,1.9765891E-1,5.213159E-1,2.684465E-1,-8.927628E-3,6.846091E-1,3.8122648E-1,1.8424468E-1,4.451743E-1,-7.4009754E-2,3.0674654E-1,4.4623694E-1,7.563729E-1,5.423074E-1,2.601363E-1,3.137484E-1,1.4446134E-2,1.5892422E-1,5.016072E-1,-1.4314906E-1,2.57509E-1,5.16268E-1,-1.761486E-2,5.8584857E-1,1.4761952E-1,6.7431414E-1,8.9142567E-1,2.1045722E-1,6.084399E-1,1.9849572E-1,5.4330796E-1],"categories":[],"categories_nodes":[],"categories_segments":[],"categories_sizes":[],"default_left":[1,1,1,1,1,1,1,1,1,1,1,1,1,1,1,0,0,0,0,0,0,0,0,0,0,0,0,0,0,0,0],"id":7,"left_children":[1,3,5,7,9,11,13,15,17,19,21,23,25,27,29,-1,-1,-1,-1,-1,-1,-1,-1,-1,-1,-1,-1,-1,-1,-1,-1],"loss_changes":[4.8912744E2,1.3403152E2,2.1773438E2,1.0156714E2,4.8053974E1,7.515747E1,9.992627E1,1.01665634E2,3.5570496E1,4.4452076E1,2.7175861E1,4.239865E1,3.738318E1,4.823767E1,5.1044724E1,0E0,0E0,0E0,0E0,0E0,0E0,0E0,0E0,0E0,0E0,0E0,0E0,0E0,0E0,0E0,0E0],"parents":[2147483647,0,0,1,1,2,2,3,3,4,4,5,5,6,6,7,7,8,8,9,9,10,10,11,11,12,12,13,13,14,14],"right_children":[2,4,6,8,10,12,14,16,18,20,22,24,26,28,30,-1,-1,-1,-1,-1,-1,-1,-1,-1,-1,-1,-1,-1,-1,-1,-1],"split_conditions":[8.5E0,1.75E1,1.95E1,1.1295551E1,7.5E0,9.6898276E-1,6.65E1,2.5E0,4.35E1,8.385017E0,2.725E2,3.215E2,7.825431E0,2.1389654E-1,8.385017E0,6.274968E-2,2.889227E-3,3.1784844E-2,1.00321434E-1,-2.8629813E-2,5.15018E-2,1.032536E-1,-3.522972E-3,1.17169715E-1,2.9523904E-2,1.3486283E-1,1.7828514E-1,4.2091444E-2,1.21687986E-1,3.9699145E-2,1.0866159E-1],"split_indices":[3,10,2,9,23,31,4,21,5,8,19,11,8,6,8,0,0,0,0,0,0,0,0,0,0,0,0,0,0,0,0],"split_type":[0,0,0,0,0,0,0,0,0,0,0,0,0,0,0,0,0,0,0,0,0,0,0,0,0,0,0,0,0,0,0],"sum_hessian":[1.8684412E4,9.165069E3,9.519342E3,6.8261074E3,2.3389614E3,4.395479E3,5.1238633E3,4.623459E3,2.2026484E3,1.9392355E3,3.9972607E2,1.0172359E3,3.3782434E3,2.1987048E3,2.9251582E3,2.62289E3,2.0005691E3,3.6280298E2,1.8398456E3,1.6046493E3,3.3458618E2,2.428486E2,1.5687746E2,6.9309625E2,3.2413962E2,2.1017117E3,1.2765316E3,3.6542966E2,1.8332753E3,2.402364E3,5.227944E2],"tree_param":{"num_deleted":"0","num_feature":"40","num_nodes":"31","size_leaf_vector":"0"}},{"base_weights":[3.0422327E-1,2.2410972E-1,5.93896E-1,1.2365049E-1,3.6044234E-1,7.6528794E-1,4.7494733E-1,2.3154713E-1,-2.308712E-2,-2.846236E-3,4.0189493E-1,-6.303184E-1,7.7707374E-1,5.2595866E-1,-7.882819E-2,1.1225649E-1,3.4723485E-1,7.966325E-2,-2.0278597E-1,3.886706E-1,-2.1496432E-1,4.5584744E-1,1.11630015E-1,-1.3964768E-1,-2.4524992E0,7.960156E-1,1.5830758E-1,6.1454654E-1,2.7656633E-1,3.152412E-1,-3.6046436E-1],"categories":[],"categories_nodes":[],"categories_segments":[],"categories_sizes":[],"default_left":[1,1,1,1,1,1,1,1,1,1,1,1,1,1,1,0,0,0,0,0,0,0,0,0,0,0,0,0,0,0,0],"id":8,"left_children":[1,3,5,7,9,11,13,15,17,19,21,23,25,27,29,-1,-1,-1,-1,-1,-1,-1,-1,-1,-1,-1,-1,-1,-1,-1,-1],"loss_changes":[4.1679138E2,1.9268884E2,7.929004E1,1.2825757E2,8.98927E1,2.6252808E1,6.489984E1,6.441678E1,6.338169E1,5.07771E1,8.3895325E1,1.1912564E1,1.8508362E1,4.645117E1,2.1516869E1,0E0,0E0,0E0,0E0,0E0,0E0,0E0,0E0,0E0,0E0,0E0,0E0,0E0,0E0,0E0,0E0],"parents":[2147483647,0,0,1,1,2,2,3,3,4,4,5,5,6,6,7,7,8,8,9,9,10,10,11,11,12,12,13,13,14,14],"right_children":[2,4,6,8,10,12,14,16,18,20,22,24,26,28,30,-1,-1,-1,-1,-1,-1,-1,-1,-1,-1,-1,-1,-1,-1,-1,-1],"split_conditions":[3.8972068E0,2.1775862E-2,1.35E1,3.5E0,3.25E1,2.6E1,2.5E0,6.039242E0,8.75E1,1.5E0,1.5E0,5.925E2,9.993103E-2,7.65E1,4.5E0,2.2451298E-2,6.944697E-2,1.593265E-2,-4.0557195E-2,7.773412E-2,-4.2992864E-2,9.116949E-2,2.2326004E-2,-2.7929535E-2,-4.9049982E-1,1.5920313E-1,3.1661518E-2,1.2290931E-1,5.5313267E-2,6.3048236E-2,-7.2092876E-2],"split_indices":[0,18,2,21,5,5,7,8,4,30,7,32,14,37,15,0,0,0,0,0,0,0,0,0,0,0,0,0,0,0,0],"split_type":[0,0,0,0,0,0,0,0,0,0,0,0,0,0,0,0,0,0,0,0,0,0,0,0,0,0,0,0,0,0,0],"sum_hessian":[1.7960643E4,1.4069621E4,3.8910205E3,8.1006846E3,5.968937E3,1.5939131E3,2.2971074E3,4.668183E3,3.4325012E3,6.113052E2,5.357632E3,1.3310867E1,1.5806023E3,2.1033752E3,1.9373213E2,2.2984111E3,2.3697722E3,2.1838025E3,1.2486987E3,2.1477704E2,3.9652814E2,4.517817E3,8.398151E2,1.0548748E1,2.7621198E0,1.533619E3,4.698321E1,1.5519576E3,5.5141766E2,8.072998E1,1.1300215E2],"tree_param":{"num_deleted":"0","num_feature":"40","num_nodes":"31","size_leaf_vector":"0"}},{"base_weights":[2.539774E-1,1.775706E-1,5.220424E-1,2.6292887E-1,1.6768133E-2,3.7407553E-1,6.8235195E-1,1.8577285E-1,4.6680266E-1,1.2134273E-1,-1.0889583E-1,5.51713E-1,2.2099927E-1,7.0088565E-1,-7.9707935E-2,3.237754E-2,2.8503177E-1,2.9582807E-1,5.644846E-1,-3.5340626E-2,2.3500548E-1,-1.6261604E-1,1.5296455E-1,6.265002E-1,2.3232138E-1,5.6766087E-1,1.2759258E-1,7.2516143E-1,2.3599455E-1,7.591934E-1,-9.552512E-1],"categories":[],"categories_nodes":[],"categories_segments":[],"categories_sizes":[],"default_left":[1,1,1,1,1,1,1,1,1,1,1,1,1,1,1,0,0,0,0,0,0,0,0,0,0,0,0,0,0,0,0],"id":9,"left_children":[1,3,5,7,9,11,13,15,17,19,21,23,25,27,29,-1,-1,-1,-1,-1,-1,-1,-1,-1,-1,-1,-1,-1,-1,-1,-1],"loss_changes":[3.5530212E2,1.8529495E2,9.124402E1,1.3870642E2,6.151967E1,5.4398438E1,2.609314E1,9.740646E1,4.0414673E1,4.5507275E1,2.9912302E1,2.2104492E1,3.479747E1,2.0325928E1,3.22922E1,0E0,0E0,0E0,0E0,0E0,0E0,0E0,0E0,0E0,0E0,0E0,0E0,0E0,0E0,0E0,0E0],"parents":[2147483647,0,0,1,1,2,2,3,3,4,4,5,5,6,6,7,7,8,8,9,9,10,10,11,11,12,12,13,13,14,14],"right_children":[2,4,6,8,10,12,14,16,18,20,22,24,26,28,30,-1,-1,-1,-1,-1,-1,-1,-1,-1,-1,-1,-1,-1,-1,-1,-1],"split_conditions":[9.5E0,8.35E1,1.5E0,7.825431E0,3.285E2,1.45E1,4.01E2,3.55E1,6.204138E-1,9.027931E-1,1.25E1,8.95E1,2.205E2,1.85E-2,-5E-1,6.475508E-3,5.7006355E-2,5.9165616E-2,1.1289692E-1,-7.068125E-3,4.7001097E-2,-3.252321E-2,3.059291E-2,1.2530003E-1,4.6464276E-2,1.1353218E-1,2.5518516E-2,1.4503229E-1,4.719891E-2,1.5183869E-1,-1.9105025E-1],"split_indices":[1,4,22,8,11,2,19,5,0,6,23,25,19,14,10,0,0,0,0,0,0,0,0,0,0,0,0,0,0,0,0],"split_type":[0,0,0,0,0,0,0,0,0,0,0,0,0,0,0,0,0,0,0,0,0,0,0,0,0,0,0,0,0,0,0],"sum_hessian":[1.7347629E4,1.3499893E4,3.8477363E3,8.818624E3,4.6812686E3,2.0010457E3,1.8466907E3,6.397622E3,2.4210017E3,2.5550762E3,2.1261924E3,9.26105E2,1.0749407E3,1.8028628E3,4.3827923E1,2.5134746E3,3.8841475E3,8.803986E2,1.5406029E3,1.0742239E3,1.4808522E3,1.7643109E3,3.6188153E2,7.5031775E2,1.7578719E2,2.280658E2,8.468749E2,1.7133359E3,8.9526825E1,2.238108E1,2.1446842E1],"tree_param":{"num_deleted":"0","num_feature":"40","num_nodes":"31","size_leaf_vector":"0"}},{"base_weights":[2.1117456E-1,1.4724807E-1,4.6469066E-1,9.625248E-2,3.7385187E-1,5.4943323E-1,2.1414424E-1,4.929264E-2,3.213624E-1,4.8321328E-1,1.6525687E-1,4.50081E-1,7.248126E-1,3.3311337E-1,-2.914252E-1,8.073867E-2,-2.6066193E-1,1.9220437E-1,4.6758887E-1,1.5282537E-1,5.241942E-1,2.9658076E-1,-3.157179E-1,1.719104E-1,5.188883E-1,3.9049557E-1,7.8586084E-1,3.4669587E-1,-2.4601364E0,-1.3518551E-1,-1.1020366E0],"categories":[],"categories_nodes":[],"categories_segments":[],"categories_sizes":[],"default_left":[1,1,1,1,1,1,1,1,1,1,1,1,1,1,1,0,0,0,0,0,0,0,0,0,0,0,0,0,0,0,0],"id":10,"left_children":[1,3,5,7,9,11,13,15,17,19,21,23,25,27,29,-1,-1,-1,-1,-1,-1,-1,-1,-1,-1,-1,-1,-1,-1,-1,-1],"loss_changes":[2.7267938E2,1.5527713E2,7.192609E1,1.15953705E2,5.6299866E1,4.4082947E1,5.1525074E1,8.846333E1,3.5744537E1,2.1913635E1,5.364293E1,3.0927063E1,1.8651764E1,2.6344444E1,2.0644527E1,0E0,0E0,0E0,0E0,0E0,0E0,0E0,0E0,0E0,0E0,0E0,0E0,0E0,0E0,0E0,0E0],"parents":[2147483647,0,0,1,1,2,2,3,3,4,4,5,5,6,6,7,7,8,8,9,9,10,10,11,11,12,12,13,13,14,14],"right_children":[2,4,6,8,10,12,14,16,18,20,22,24,26,28,30,-1,-1,-1,-1,-1,-1,-1,-1,-1,-1,-1,-1,-1,-1,-1,-1],"split_conditions":[3.8972068E0,-5E-1,1.115E2,8.422051E0,9.25E1,7.825431E0,3.465E2,9.55E1,7.606724E-1,5.1293105E-2,7.085E2,3.5E0,7.121035E-1,9.4E1,8.95E1,1.6147735E-2,-5.2132387E-2,3.8440876E-2,9.351777E-2,3.0565074E-2,1.0483884E-1,5.9316155E-2,-6.314358E-2,3.4382083E-2,1.0377766E-1,7.809912E-2,1.5717217E-1,6.933918E-2,-4.9202728E-1,-2.7037103E-2,-2.2040732E-1],"split_indices":[0,24,16,8,36,8,19,25,0,6,16,1,31,23,4,0,0,0,0,0,0,0,0,0,0,0,0,0,0,0,0],"split_type":[0,0,0,0,0,0,0,0,0,0,0,0,0,0,0,0,0,0,0,0,0,0,0,0,0,0,0,0,0,0,0],"sum_hessian":[1.6826016E4,1.3437715E4,3.388301E3,1.0969293E4,2.468422E3,2.5318347E3,8.564661E2,9.076074E3,1.8932189E3,1.6193159E3,8.491061E2,1.6164282E3,9.154066E2,6.9335156E2,1.631146E2,8.240162E3,8.3591235E2,1.0054002E3,8.878187E2,1.7875545E2,1.4405605E3,6.6702924E2,1.8207687E2,3.2062097E2,1.2958073E3,1.4145024E2,7.739564E2,6.9005896E2,3.2925801E0,1.3683246E2,2.6282137E1],"tree_param":{"num_deleted":"0","num_feature":"40","num_nodes":"31","size_leaf_vector":"0"}},{"base_weights":[1.7467657E-1,3.6188355E-1,9.964773E-2,9.282695E-2,4.446764E-1,-1.0019711E-2,2.0595673E-1,2.0630115E-1,-1.9257446E-1,3.4759632E-1,6.335145E-1,1.3026892E-1,-9.949945E-2,3.481737E-2,3.1057176E-1,1.409096E-1,5.6152034E-1,-1.476608E-1,-1.5474617E0,3.7342966E-1,-3.3299053E-1,5.4708683E-1,8.374308E-1,8.904289E-2,4.6259725E-1,-1.9155012E-1,5.0327376E-2,2.7289066E-1,-2.8734569E-2,1.6566202E-1,4.4279313E-1],"categories":[],"categories_nodes":[],"categories_segments":[],"categories_sizes":[],"default_left":[1,1,1,1,1,1,1,1,1,1,1,1,1,1,1,0,0,0,0,0,0,0,0,0,0,0,0,0,0,0,0],"id":11,"left_children":[1,3,5,7,9,11,13,15,17,19,21,23,25,27,29,-1,-1,-1,-1,-1,-1,-1,-1,-1,-1,-1,-1,-1,-1,-1,-1],"loss_changes":[2.3036404E2,1.04522644E2,1.3651083E2,3.5766502E1,6.575763E1,7.23483E1,1.0644237E2,1.8342743E1,1.9085638E1,4.167993E1,2.1425537E1,3.0741924E1,4.8535007E1,3.413173E1,7.068729E1,0E0,0E0,0E0,0E0,0E0,0E0,0E0,0E0,0E0,0E0,0E0,0E0,0E0,0E0,0E0,0E0],"parents":[2147483647,0,0,1,1,2,2,3,3,4,4,5,5,6,6,7,7,8,8,9,9,10,10,11,11,12,12,13,13,14,14],"right_children":[2,4,6,8,10,12,14,16,18,20,22,24,26,28,30,-1,-1,-1,-1,-1,-1,-1,-1,-1,-1,-1,-1,-1,-1,-1,-1],"split_conditions":[1.55E1,1.3101724E-1,5E-1,2.5E0,7.825431E0,2.285E2,5.268621E-1,2.005E2,3.165E2,2.4784483E-1,1.65E1,6.6254997E0,4.977069E-1,3.35E1,5.9189653E0,2.818192E-2,1.1230407E-1,-2.9532162E-2,-3.0949235E-1,7.468593E-2,-6.659811E-2,1.0941737E-1,1.6748616E-1,1.7808577E-2,9.2519455E-2,-3.8310025E-2,1.00654755E-2,5.4578133E-2,-5.7469136E-3,3.3132404E-2,8.855863E-2],"split_indices":[2,6,22,21,8,19,31,5,17,14,22,31,18,4,8,0,0,0,0,0,0,0,0,0,0,0,0,0,0,0,0],"split_type":[0,0,0,0,0,0,0,0,0,0,0,0,0,0,0,0,0,0,0,0,0,0,0,0,0,0,0,0,0,0,0],"sum_hessian":[1.6401213E4,4.6924736E3,1.170874E4,1.1042368E3,3.5882366E3,5.7633184E3,5.945422E3,7.901363E2,3.1410052E2,2.3700564E3,1.2181803E3,2.2443796E3,3.5189387E3,2.2556304E3,3.6897917E3,6.67399E2,1.22737335E2,3.0410223E2,9.9983015E0,2.2834285E3,8.662786E1,8.5576984E2,3.6241037E2,1.9967896E3,2.4759001E2,2.1797754E3,1.3391635E3,4.752437E2,1.7803865E3,1.7605367E3,1.929255E3],"tree_param":{"num_deleted":"0","num_feature":"40","num_nodes":"31","size_leaf_vector":"0"}},{"base_weights":[1.4419885E-1,9.390626E-2,3.795477E-1,2.3345754E-1,2.418679E-2,4.7805265E-1,1.600662E-1,1.507425E-1,4.4514173E-1,-3.6365826E-2,1.7765942E-1,1.275715E-1,5.306904E-1,6.616793E-2,5.2375567E-1,8.809383E-2,3.966331E-1,2.6213288E-2,5.2967817E-1,-8.1828915E-2,1.7084889E-1,2.518944E-1,-9.1059014E-2,1.6929355E-2,5.7272667E-1,5.3683543E-1,-2.3075936E0,-2.208676E-2,5.241186E-1,5.7300605E-2,7.868995E-1],"categories":[],"categories_nodes":[],"categories_segments":[],"categories_sizes":[],"default_left":[1,1,1,1,1,1,1,1,1,1,1,1,1,1,1,0,0,0,0,0,0,0,0,0,0,0,0,0,0,0,0],"id":12,"left_children":[1,3,5,7,9,11,13,15,17,19,21,23,25,27,29,-1,-1,-1,-1,-1,-1,-1,-1,-1,-1,-1,-1,-1,-1,-1,-1],"loss_changes":[1.8968951E2,1.2847441E2,6.09946E1,7.701802E1,8.1835884E1,3.591861E1,2.9847069E1,4.872354E1,4.376448E1,5.9486248E1,4.9702927E1,1.2524366E1,2.9598389E1,2.8093E1,2.2004742E1,0E0,0E0,0E0,0E0,0E0,0E0,0E0,0E0,0E0,0E0,0E0,0E0,0E0,0E0,0E0,0E0],"parents":[2147483647,0,0,1,1,2,2,3,3,4,4,5,5,6,6,7,7,8,8,9,9,10,10,11,11,12,12,13,13,14,14],"right_children":[2,4,6,8,10,12,14,16,18,20,22,24,26,28,30,-1,-1,-1,-1,-1,-1,-1,-1,-1,-1,-1,-1,-1,-1,-1,-1],"split_conditions":[1.05E1,6.05E1,7.55E1,2.3638966E0,4.765E2,4.5E0,4.5E0,8.2225E0,3.45E1,3.5E0,3.215E2,6.05E1,4.95E1,2.55E1,3.7438896E1,1.7618766E-2,7.932662E-2,5.242658E-3,1.0593563E-1,-1.6365783E-2,3.416978E-2,5.0378885E-2,-1.8211802E-2,3.385871E-3,1.1454534E-1,1.0736709E-1,-4.6151873E-1,-4.417352E-3,1.0482372E-1,1.1460121E-2,1.5737991E-1],"split_indices":[1,4,25,31,32,3,22,8,5,23,19,23,39,1,9,0,0,0,0,0,0,0,0,0,0,0,0,0,0,0,0],"split_type":[0,0,0,0,0,0,0,0,0,0,0,0,0,0,0,0,0,0,0,0,0,0,0,0,0,0,0,0,0,0,0],"sum_hessian":[1.6026619E4,1.3204942E4,2.821677E3,4.399184E3,8.805758E3,1.9474991E3,8.741778E2,3.1632976E3,1.2358866E3,6.314399E3,2.4913591E3,2.5435208E2,1.6931471E3,6.948796E2,1.7929822E2,2.521098E3,6.4219965E2,2.0755162E2,1.0283351E3,5.178353E3,1.1360459E3,1.9521171E3,5.392419E2,2.0379271E2,5.0559372E1,1.6895475E3,3.5995464E0,5.826382E2,1.1224141E2,6.47108E1,1.1458742E2],"tree_param":{"num_deleted":"0","num_feature":"40","num_nodes":"31","size_leaf_vector":"0"}},{"base_weights":[1.1865803E-1,1.6755074E-1,-9.466073E-2,2.4664581E-1,2.1024505E-2,-9.270906E-2,-5.1192803E0,1.3345383E-1,3.7718615E-1,-8.924867E-2,1.872143E-1,-1.0980543E-1,4.085937E-1,9.087178E-2,4.277341E-1,2.5873765E-1,5.203251E-1,5.6604765E-2,-2.4337941E-1,2.542451E-1,-9.798928E-2,-1.5226988E-1,9.624177E-2,5.768405E-1,-1.6629656E-1],"categories":[],"categories_nodes":[],"categories_segments":[],"categories_sizes":[],"default_left":[1,1,1,1,1,1,0,1,1,1,1,1,1,0,0,0,0,0,0,0,0,0,0,0,0],"id":13,"left_children":[1,3,5,7,9,11,-1,13,15,17,19,21,23,-1,-1,-1,-1,-1,-1,-1,-1,-1,-1,-1,-1],"loss_changes":[1.639298E2,1.4818866E2,2.8655514E1,1.22693695E2,8.215338E1,2.510844E1,0E0,5.5726875E1,6.536737E1,6.0580807E1,3.4186745E1,2.4790276E1,9.355276E0,0E0,0E0,0E0,0E0,0E0,0E0,0E0,0E0,0E0,0E0,0E0,0E0],"parents":[2147483647,0,0,1,1,2,2,3,3,4,4,5,5,7,7,8,8,9,9,10,10,11,11,12,12],"right_children":[2,4,6,8,10,12,-1,14,16,18,20,22,24,-1,-1,-1,-1,-1,-1,-1,-1,-1,-1,-1,-1],"split_conditions":[1.5E0,3.325E2,1.131212E3,1.3629656E0,7.046552E-1,7.25E1,-1.023856E0,4.65E1,6.8356037E0,4.5E0,9.05E1,1.0439827E0,1.8005E3,1.8174356E-2,8.554682E-2,5.174753E-2,1.0406502E-1,1.1320953E-2,-4.8675884E-2,5.084902E-2,-1.9597856E-2,-3.0453978E-2,1.9248355E-2,1.15368105E-1,-3.3259314E-2],"split_indices":[7,11,9,0,18,26,0,23,8,21,25,14,16,0,0,0,0,0,0,0,0,0,0,0,0],"split_type":[0,0,0,0,0,0,0,0,0,0,0,0,0,0,0,0,0,0,0,0,0,0,0,0,0],"sum_hessian":[1.5717301E4,1.2786657E4,2.9306438E3,8.3040205E3,4.4826357E3,2.929577E3,1.0669396E0,4.4476567E3,3.8563643E3,2.6946233E3,1.7880127E3,2.8330322E3,9.654454E1,3.885545E3,5.6211176E2,2.1103198E3,1.7460444E3,1.384476E3,1.3101473E3,1.4477853E3,3.402275E2,2.3489924E3,4.8403983E2,7.470006E1,2.1844479E1],"tree_param":{"num_deleted":"0","num_feature":"40","num_nodes":"25","size_leaf_vector":"0"}},{"base_weights":[9.736986E-2,6.613844E-2,3.8571054E-1,2.7928073E-2,2.5602964E-1,6.3214546E-1,2.7836204E-1,8.753668E-2,-8.420043E-2,1.6670457E-1,4.4093263E-1,3.3215883E-1,7.7521014E-1,2.901753E-1,-1.9423333E0,-8.042857E-2,1.4315832E-1,-3.3844285E-2,-3.238809E-1,2.0370565E-1,-3.5978442E-1,6.251167E-1,2.6244563E-1,4.793686E-1,-2.3639275E-1,7.900428E-1,-2.4856207E0,1.9348517E-1,5.167206E-1,3.7664792E-1,-2.6891887E0],"categories":[],"categories_nodes":[],"categories_segments":[],"categories_sizes":[],"default_left":[1,1,1,1,1,1,1,1,1,1,1,1,1,1,1,0,0,0,0,0,0,0,0,0,0,0,0,0,0,0,0],"id":14,"left_children":[1,3,5,7,9,11,13,15,17,19,21,23,25,27,29,-1,-1,-1,-1,-1,-1,-1,-1,-1,-1,-1,-1,-1,-1,-1,-1],"loss_changes":[1.3916025E2,1.0116945E2,3.9931564E1,7.758658E1,3.8566803E1,1.9635056E1,2.76231E1,7.0808876E1,4.8623627E1,3.0686329E1,2.4989014E1,1.2404545E1,1.5117126E1,2.2912354E1,9.741581E0,0E0,0E0,0E0,0E0,0E0,0E0,0E0,0E0,0E0,0E0,0E0,0E0,0E0,0E0,0E0,0E0],"parents":[2147483647,0,0,1,1,2,2,3,3,4,4,5,5,6,6,7,7,8,8,9,9,10,10,11,11,12,12,13,13,14,14],"right_children":[2,4,6,8,10,12,14,16,18,20,22,24,26,28,30,-1,-1,-1,-1,-1,-1,-1,-1,-1,-1,-1,-1,-1,-1,-1,-1],"split_conditions":[2.235E2,8.422051E0,5.45E1,8.35E1,2.178224E0,7.2284484E-1,4.535E2,1.0694827E-1,7.5E0,3.315E2,6.55E1,1.1618966E-1,2.21E2,9.887543E1,-3E0,-1.6085714E-2,2.8631663E-2,-6.768857E-3,-6.477618E-2,4.074113E-2,-7.195689E-2,1.2502335E-1,5.2489128E-2,9.587372E-2,-4.727855E-2,1.5800856E-1,-4.9712417E-1,3.8697034E-2,1.0334412E-1,7.532959E-2,-5.3783774E-1],"split_indices":[5,8,4,4,0,31,29,6,21,29,4,31,36,9,27,0,0,0,0,0,0,0,0,0,0,0,0,0,0,0,0],"split_type":[0,0,0,0,0,0,0,0,0,0,0,0,0,0,0,0,0,0,0,0,0,0,0,0,0,0,0,0,0,0,0],"sum_hessian":[1.5453793E4,1.3943618E4,1.5101753E3,1.1607966E4,2.3356523E3,4.5810376E2,1.0520715E3,7.5789995E3,4.028966E3,1.574977E3,7.6067523E2,1.4802043E2,3.1008334E2,1.0465675E3,5.503956E0,1.8853732E3,5.6936265E3,3.3295557E3,6.994105E2,1.4716141E3,1.0336295E2,3.74252E2,3.864232E2,1.17599655E2,3.0420773E1,3.0873337E2,1.3499634E0,7.336245E2,3.1294308E2,1.3457123E0,4.158243E0],"tree_param":{"num_deleted":"0","num_feature":"40","num_nodes":"31","size_leaf_vector":"0"}},{"base_weights":[7.969606E-2,3.3564314E-2,2.5315678E-1,8.756832E-2,-7.965534E-2,3.4493285E-1,4.3880794E-2,1.8130308E-3,1.7191719E-1,-1.5074467E-2,-2.378532E-1,4.04683E-1,-3.871229E-2,3.7979576E-1,-4.799187E-2,1.1848292E-1,-7.484769E-2,-6.9906294E-2,2.3747484E-1,-9.613614E-2,1.6746229E-1,-1.7957363E-1,-7.7454877E-1,3.1627378E-1,5.495658E-1,-7.7198225E-4,-1.5035197E0,2.0463204E-1,8.8024867E-1,-1.670372E-2,-1.3076487E0],"categories":[],"categories_nodes":[],"categories_segments":[],"categories_sizes":[],"default_left":[1,1,1,1,1,1,1,1,1,1,1,1,1,1,1,0,0,0,0,0,0,0,0,0,0,0,0,0,0,0,0],"id":15,"left_children":[1,3,5,7,9,11,13,15,17,19,21,23,25,27,29,-1,-1,-1,-1,-1,-1,-1,-1,-1,-1,-1,-1,-1,-1,-1,-1],"loss_changes":[1.2193473E2,7.360003E1,6.1479126E1,5.8949894E1,3.971244E1,5.1014282E1,3.0125343E1,3.6147476E1,6.5138245E1,4.08477E1,3.522688E1,2.4642365E1,1.6652319E1,1.835419E1,3.0192083E1,0E0,0E0,0E0,0E0,0E0,0E0,0E0,0E0,0E0,0E0,0E0,0E0,0E0,0E0,0E0,0E0],"parents":[2147483647,0,0,1,1,2,2,3,3,4,4,5,5,6,6,7,7,8,8,9,9,10,10,11,11,12,12,13,13,14,14],"right_children":[2,4,6,8,10,12,14,16,18,20,22,24,26,28,30,-1,-1,-1,-1,-1,-1,-1,-1,-1,-1,-1,-1,-1,-1,-1,-1],"split_conditions":[-5E-1,3.385E2,1.295E2,5E-1,3.55E1,5E-1,2.875E2,2.5E0,1.09741375E-1,4.725E2,4.025E2,1.35E1,8.45E1,8.982242E1,2.05E1,2.3696585E-2,-1.4969538E-2,-1.3981259E-2,4.749497E-2,-1.9227227E-2,3.3492457E-2,-3.5914727E-2,-1.5490976E-1,6.325476E-2,1.0991316E-1,-1.5439645E-4,-3.0070394E-1,4.0926408E-2,1.7604974E-1,-3.340744E-3,-2.6152974E-1],"split_indices":[24,11,16,22,10,7,11,15,6,32,19,23,23,9,21,0,0,0,0,0,0,0,0,0,0,0,0,0,0,0,0],"split_type":[0,0,0,0,0,0,0,0,0,0,0,0,0,0,0,0,0,0,0,0,0,0,0,0,0,0,0,0,0,0,0],"sum_hessian":[1.5238308E4,1.203717E4,3.2011375E3,8.1498994E3,3.887271E3,2.2252031E3,9.759342E2,4.0413508E3,4.1085483E3,2.7604954E3,1.1267755E3,1.9253632E3,2.9983994E2,2.095717E2,7.6636255E2,1.60254E3,2.4388108E3,8.7622974E2,3.2323186E3,1.9116493E3,8.488462E2,1.0165029E3,1.1027264E2,1.195897E3,7.2946625E2,2.923425E2,7.497434E0,1.5532259E2,5.4249107E1,7.478632E2,1.849933E1],"tree_param":{"num_deleted":"0","num_feature":"40","num_nodes":"31","size_leaf_vector":"0"}},{"base_weights":[6.5171935E-2,2.3969077E-2,2.1508041E-1,-1.0790601E-2,2.0109001E-1,2.7305615E-1,-4.7853716E-2,3.5649676E-2,-1.3608043E-1,6.2069945E-2,3.170609E-1,4.1612917E-1,1.5339172E-1,-3.0546254E-2,-2.609784E0,9.490318E-3,3.19762E-1,-8.063475E-2,-3.3203885E-1,3.600774E-1,2.021213E-3,4.1865098E-1,7.142025E-2,3.174678E-1,6.349456E-1,1.7875884E-1,-6.918624E-1,-8.691268E-2,5.380751E-1,-3.9719005E0,-8.5395443E-1],"categories":[],"categories_nodes":[],"categories_segments":[],"categories_sizes":[],"default_left":[1,1,1,1,1,1,1,1,1,1,1,1,1,1,1,0,0,0,0,0,0,0,0,0,0,0,0,0,0,0,0],"id":16,"left_children":[1,3,5,7,9,11,13,15,17,19,21,23,25,27,29,-1,-1,-1,-1,-1,-1,-1,-1,-1,-1,-1,-1,-1,-1,-1,-1],"loss_changes":[9.298141E1,7.270391E1,4.9477646E1,5.7438087E1,3.1228462E1,4.5518295E1,2.59681E1,5.3522594E1,2.899894E1,1.5765604E1,2.634893E1,2.612259E1,3.1055767E1,1.8668667E1,9.121246E0,0E0,0E0,0E0,0E0,0E0,0E0,0E0,0E0,0E0,0E0,0E0,0E0,0E0,0E0,0E0,0E0],"parents":[2147483647,0,0,1,1,2,2,3,3,4,4,5,5,6,6,7,7,8,8,9,9,10,10,11,11,12,12,13,13,14,14],"right_children":[2,4,6,8,10,12,14,16,18,20,22,24,26,28,30,-1,-1,-1,-1,-1,-1,-1,-1,-1,-1,-1,-1,-1,-1,-1,-1],"split_conditions":[2.5E0,8.422051E0,5E-1,1.2034483E-2,6.8517244E-1,3.105E2,8.65E1,1.15E1,7.15E1,-1E0,2.175E2,1.35E1,4.1853446E-1,2.875E2,3.5E0,1.8980636E-3,6.39524E-2,-1.6126951E-2,-6.640777E-2,7.201549E-2,4.0424263E-4,8.37302E-2,1.4284051E-2,6.3493565E-2,1.2698911E-1,3.575177E-2,-1.3837248E-1,-1.7382536E-2,1.0761502E-1,-7.943801E-1,-1.707909E-1],"split_indices":[23,8,7,20,0,11,35,1,25,6,16,22,14,5,33,0,0,0,0,0,0,0,0,0,0,0,0,0,0,0,0],"split_type":[0,0,0,0,0,0,0,0,0,0,0,0,0,0,0,0,0,0,0,0,0,0,0,0,0,0,0,0,0,0,0],"sum_hessian":[1.5054053E4,1.1808571E4,3.2454812E3,9.871344E3,1.937227E3,2.65918E3,5.863013E2,7.2018535E3,2.6694905E3,8.8114496E2,1.0560822E3,1.2110157E3,1.4481642E3,5.82439E2,3.862301E0,6.5947534E3,6.0710016E2,2.0808645E3,5.88626E2,1.4768999E2,7.3345496E2,7.470392E2,3.0904297E2,8.348189E2,3.7619687E2,1.4060327E3,4.213156E1,5.2997815E2,5.246083E1,2.1236546E0,1.7386465E0],"tree_param":{"num_deleted":"0","num_feature":"40","num_nodes":"31","size_leaf_vector":"0"}},{"base_weights":[5.321701E-2,7.728538E-2,-1.7623632E-1,2.0369677E-2,1.819871E-1,-9.580341E-2,-4.1898835E-1,4.7121856E-2,-2.4258853E-1,2.0048657E-1,-3.8638023E-1,-2.3321714E-1,6.258502E-2,-2.2967548E0,-3.8550466E-1,2.819409E-2,3.5586682E-1,-1.7092788E-1,-5.995999E-1,2.2211166E-1,-2.4089336E-1,-1.2530255E-1,-9.560508E-1,-1.8251352E-1,-7.701351E-1,-2.4796845E-2,4.7960305E-1,-3.5243928E0,9.453658E-3,-2.9001763E-1,-1.1269999E0],"categories":[],"categories_nodes":[],"categories_segments":[],"categories_sizes":[],"default_left":[1,1,1,1,1,1,1,1,1,1,1,1,1,1,1,0,0,0,0,0,0,0,0,0,0,0,0,0,0,0,0],"id":17,"left_children":[1,3,5,7,9,11,13,15,17,19,21,23,25,27,29,-1,-1,-1,-1,-1,-1,-1,-1,-1,-1,-1,-1,-1,-1,-1,-1],"loss_changes":[8.230176E1,8.037556E1,2.7616398E1,6.1469597E1,4.9946564E1,2.3134417E1,2.204868E1,4.634548E1,2.0628132E1,4.3912415E1,2.2250996E1,1.5474831E1,1.7997234E1,1.7446095E1,2.445993E1,0E0,0E0,0E0,0E0,0E0,0E0,0E0,0E0,0E0,0E0,0E0,0E0,0E0,0E0,0E0,0E0],"parents":[2147483647,0,0,1,1,2,2,3,3,4,4,5,5,6,6,7,7,8,8,9,9,10,10,11,11,12,12,13,13,14,14],"right_children":[2,4,6,8,10,12,14,16,18,20,22,24,26,28,30,-1,-1,-1,-1,-1,-1,-1,-1,-1,-1,-1,-1,-1,-1,-1,-1],"split_conditions":[9.55E1,2.1383965E0,4.15E1,9.25E1,2.4784483E-1,1.1601294E1,5.15E1,5.35E1,2.146E3,2.55E1,3.237931E-2,8.865656E0,8.5E0,6.5E0,1.317543E1,5.6388183E-3,7.117336E-2,-3.4185577E-2,-1.1991998E-1,4.4422332E-2,-4.8178673E-2,-2.506051E-2,-1.9121017E-1,-3.6502704E-2,-1.5402703E-1,-4.959369E-3,9.5920615E-2,-7.0487857E-1,1.8907316E-3,-5.8003526E-2,-2.2539997E-1],"split_indices":[25,6,10,37,14,9,4,27,16,35,20,9,39,21,28,0,0,0,0,0,0,0,0,0,0,0,0,0,0,0,0],"split_type":[0,0,0,0,0,0,0,0,0,0,0,0,0,0,0,0,0,0,0,0,0,0,0,0,0,0,0,0,0,0,0],"sum_hessian":[1.4902748E4,1.3488019E4,1.4147294E3,8.738149E3,4.749869E3,1.0627393E3,3.5199E2,7.931344E3,8.068055E2,4.600201E3,1.4966794E2,5.6906464E2,4.9367468E2,6.0811625E0,3.4590884E2,7.4732964E3,4.580479E2,6.7203937E2,1.3476608E2,4.385398E3,2.1480296E2,1.0270078E2,4.696716E1,5.200622E2,4.9002453E1,4.081837E2,8.5491E1,3.9480822E0,2.13308E0,3.065413E2,3.936755E1],"tree_param":{"num_deleted":"0","num_feature":"40","num_nodes":"31","size_leaf_vector":"0"}},{"base_weights":[4.330282E-2,2.6539708E-2,3.6395377E-1,-2.3662874E-2,1.187516E-1,-1.2017357E-1,4.3561307E-1,4.823042E-2,-8.9459226E-2,2.3608042E-2,2.190088E-1,-4.2447153E-1,3.646489E-1,4.5971835E-1,-9.990609E-1,8.222604E-2,-1.896495E-1,-1.3981192E-1,9.7210765E-2,-4.8418656E-2,1.9803865E-1,2.6304004E-1,-1.5680125E-1,-2.5560555E-1,-1.8113855E0,5.6608295E-1,-8.1049204E-1,4.91452E-1,-4.5691788E-1,-5.54852E-1,-4.152975E0],"categories":[],"categories_nodes":[],"categories_segments":[],"categories_sizes":[],"default_left":[1,1,1,1,1,1,1,1,1,1,1,1,1,1,1,0,0,0,0,0,0,0,0,0,0,0,0,0,0,0,0],"id":18,"left_children":[1,3,5,7,9,11,13,15,17,19,21,23,25,27,29,-1,-1,-1,-1,-1,-1,-1,-1,-1,-1,-1,-1,-1,-1,-1,-1],"loss_changes":[7.949578E1,6.5069115E1,2.5497574E1,4.3051052E1,4.7261E1,1.399277E1,2.2161324E1,3.5169373E1,4.4667606E1,3.1944033E1,3.992517E1,1.3594961E1,8.6850605E0,1.8327896E1,1.4635012E1,0E0,0E0,0E0,0E0,0E0,0E0,0E0,0E0,0E0,0E0,0E0,0E0,0E0,0E0,0E0,0E0],"parents":[2147483647,0,0,1,1,2,2,3,3,4,4,5,5,6,6,7,7,8,8,9,9,10,10,11,11,12,12,13,13,14,14],"right_children":[2,4,6,8,10,12,14,16,18,20,22,24,26,28,30,-1,-1,-1,-1,-1,-1,-1,-1,-1,-1,-1,-1,-1,-1,-1,-1],"split_conditions":[2.845E2,4.5E0,6.427759E-1,2.015E2,3.5E0,3.295E2,3.925E2,1.4813793E-1,5.11E2,7.3629313E0,9.25E1,6.385E3,4.13E2,3.9577587E1,6.3606555E2,1.6445208E-2,-3.7929904E-2,-2.7962385E-2,1.9442154E-2,-9.683731E-3,3.960773E-2,5.260801E-2,-3.136025E-2,-5.1121112E-2,-3.6227712E-1,1.13216594E-1,-1.6209841E-1,9.8290406E-2,-9.138358E-2,-1.109704E-1,-8.30595E-1],"split_indices":[5,22,9,29,1,5,29,20,12,8,37,16,5,28,9,0,0,0,0,0,0,0,0,0,0,0,0,0,0,0,0],"split_type":[0,0,0,0,0,0,0,0,0,0,0,0,0,0,0,0,0,0,0,0,0,0,0,0,0,0,0,0,0,0,0],"sum_hessian":[1.47903955E4,1.4055691E4,7.3470416E2,9.100877E3,4.954815E3,9.470379E1,6.400004E2,4.3488794E3,4.751997E3,2.5423354E3,2.4124795E3,5.8202286E1,3.6501503E1,6.29477E2,1.05234165E1,3.8051663E3,5.437131E2,3.7425466E3,1.0094507E3,1.7993365E3,7.4299884E2,2.1595105E3,2.5296892E2,5.1962887E1,6.2394E0,3.1197475E1,5.3040285E0,6.084548E2,2.1022198E1,9.296836E0,1.2265811E0],"tree_param":{"num_deleted":"0","num_feature":"40","num_nodes":"31","size_leaf_vector":"0"}},{"base_weights":[3.5342902E-2,-5.726632E-3,1.4157501E-1,-1.51207615E-2,4.6175638E-1,-4.1490942E-2,1.9723183E-1,2.0732738E-2,-1.5492669E-1,5.4204756E-1,-8.803019E-1,1.5533662E-1,-1.3829568E-1,2.735238E-1,-3.6101438E-2,-3.0534362E-2,1.1426724E-1,-1.5202667E-1,-4.719656E0,5.812942E-1,-1.89025E0,-6.040192E0,-3.4662735E-1,-6.92589E-1,2.3285536E-1,-4.9021927E-1,1.9916236E-2,4.8781756E-1,2.2243297E-1,-1.1004773E-1,5.846497E-1],"categories":[],"categories_nodes":[],"categories_segments":[],"categories_sizes":[],"default_left":[1,1,1,1,1,1,1,1,1,1,1,1,1,1,1,0,0,0,0,0,0,0,0,0,0,0,0,0,0,0,0],"id":19,"left_children":[1,3,5,7,9,11,13,15,17,19,21,23,25,27,29,-1,-1,-1,-1,-1,-1,-1,-1,-1,-1,-1,-1,-1,-1,-1,-1],"loss_changes":[6.4035614E1,4.648037E1,4.1696938E1,5.2013695E1,2.2495392E1,1.818027E1,5.5867157E1,3.960264E1,2.7940052E1,1.884531E1,3.225565E1,2.0681133E1,3.561801E1,2.5878265E1,3.5494778E1,0E0,0E0,0E0,0E0,0E0,0E0,0E0,0E0,0E0,0E0,0E0,0E0,0E0,0E0,0E0,0E0],"parents":[2147483647,0,0,1,1,2,2,3,3,4,4,5,5,6,6,7,7,8,8,9,9,10,10,11,11,12,12,13,13,14,14],"right_children":[2,4,6,8,10,12,14,16,18,20,22,24,26,28,30,-1,-1,-1,-1,-1,-1,-1,-1,-1,-1,-1,-1,-1,-1,-1,-1],"split_conditions":[7.8299313E0,3.45E1,1.0186207E-1,7.65E1,4.1324997E1,-1E0,9.5E0,2.4439655E-1,2.545E2,9.318539E2,4.345517E1,3.135E2,5E-1,4.15E1,3.05E1,-6.1068726E-3,2.2853447E-2,-3.0405333E-2,-9.439312E-1,1.1625884E-1,-3.7805E-1,-1.2080384E0,-6.932547E-2,-1.385178E-1,4.6571072E-2,-9.804385E-2,3.9832476E-3,9.756351E-2,4.4486593E-2,-2.2009546E-2,1.1692994E-1],"split_indices":[8,30,6,25,18,6,15,18,26,9,18,32,7,4,30,0,0,0,0,0,0,0,0,0,0,0,0,0,0,0,0],"split_type":[0,0,0,0,0,0,0,0,0,0,0,0,0,0,0,0,0,0,0,0,0,0,0,0,0,0,0,0,0,0,0],"sum_hessian":[1.4676904E4,1.0584778E4,4.0921255E3,1.0376352E4,2.0842714E2,9.540174E2,3.1381082E3,8.258443E3,2.1179077E3,1.9670662E2,1.1720517E1,3.1447302E2,6.395444E2,2.3648984E3,7.7320966E2,5.3344966E3,2.9239468E3,2.116635E3,1.2725421E0,1.9363782E2,3.0688112E0,1.0313343E0,1.0689182E1,2.6285639E1,2.8818738E2,1.9832191E2,4.4122247E2,4.5513223E2,1.9097664E3,6.909704E2,8.223925E1],"tree_param":{"num_deleted":"0","num_feature":"40","num_nodes":"31","size_leaf_vector":"0"}},{"base_weights":[2.8942728E-2,6.782355E-2,-6.9724046E-2,1.5530398E-2,1.8720363E-1,-6.4792894E-2,-2.4154322E0,5.9233423E-2,-1.5949385E-1,1.2141542E-1,3.4098455E-1,-2.5683445E-1,-5.1688543E-3,-1.426323E0,-3.0540473E0,3.3708986E-2,2.922204E-1,-1.5497601E-1,-3.7216115E0,-1.4970075E-1,1.5963675E-1,3.1130177E-1,9.5590633E-1,-2.8913438E-1,3.7924522E-1,7.787315E-2,-1.383224E-1,-2.1097212E0,1.2876497E-1,-3.7276514E0,-1.8234955E0],"categories":[],"categories_nodes":[],"categories_segments":[],"categories_sizes":[],"default_left":[1,1,1,1,1,1,1,1,1,1,1,1,1,1,1,0,0,0,0,0,0,0,0,0,0,0,0,0,0,0,0],"id":20,"left_children":[1,3,5,7,9,11,13,15,17,19,21,23,25,27,29,-1,-1,-1,-1,-1,-1,-1,-1,-1,-1,-1,-1,-1,-1,-1,-1],"loss_changes":[5.595237E1,6.5312164E1,4.7652695E1,5.56514E1,3.223413E1,4.710591E1,5.1193085E0,3.4618652E1,2.3316322E1,2.3132332E1,1.7394432E1,2.0031685E1,3.4716618E1,3.783341E0,3.7830162E0,0E0,0E0,0E0,0E0,0E0,0E0,0E0,0E0,0E0,0E0,0E0,0E0,0E0,0E0,0E0,0E0],"parents":[2147483647,0,0,1,1,2,2,3,3,4,4,5,5,6,6,7,7,8,8,9,9,10,10,11,11,12,12,13,13,14,14],"right_children":[2,4,6,8,10,12,14,16,18,20,22,24,26,28,30,-1,-1,-1,-1,-1,-1,-1,-1,-1,-1,-1,-1,-1,-1,-1,-1],"split_conditions":[4.375E2,6.5E0,5.105E2,-5E-1,6.5E0,1.5E0,3.5E0,4.714328E0,1.6771982E2,5.25E1,3.395E2,5.05E1,2.5E0,3.92E2,9.35E1,6.741797E-3,5.8444083E-2,-3.0995203E-2,-7.443223E-1,-2.9940149E-2,3.192735E-2,6.2260356E-2,1.9118127E-1,-5.7826877E-2,7.584905E-2,1.5574629E-2,-2.766448E-2,-4.2194423E-1,2.5752995E-2,-7.455303E-1,-3.646991E-1],"split_indices":[16,30,19,25,22,34,30,0,31,5,5,27,33,11,36,0,0,0,0,0,0,0,0,0,0,0,0,0,0,0,0],"split_type":[0,0,0,0,0,0,0,0,0,0,0,0,0,0,0,0,0,0,0,0,0,0,0,0,0,0,0,0,0,0,0],"sum_hessian":[1.4585043E4,1.0462351E4,4.1226924E3,7.275539E3,3.1868113E3,4.1141177E3,8.57483E0,5.8219243E3,1.453615E3,2.2320962E3,9.54715E2,9.7461456E2,3.139503E3,3.456286E0,5.1185436E0,5.247198E3,5.7472614E2,1.451847E3,1.767887E0,2.7573804E2,1.9563582E3,9.108651E2,4.3849934E1,9.2756573E2,4.704883E1,1.9335721E3,1.2059308E3,2.388785E0,1.0675011E0,3.2137587E0,1.9047852E0],"tree_param":{"num_deleted":"0","num_feature":"40","num_nodes":"31","size_leaf_vector":"0"}},{"base_weights":[2.3640495E-2,1.3101207E-1,-8.110593E-3,1.8677968E-1,-1.0370095E-1,-2.3792231E-2,2.4320522E-1,1.2442223E-1,3.7829491E-1,-8.990768E-3,-3.956632E-1,1.4489044E-1,-4.4964805E-2,-1.12911336E-1,3.4265777E-1,2.2359248E-1,-2.7409932E-2,3.9270375E-2,4.6429172E-1,2.761544E-4,-3.1839395E0,-6.680335E-1,-7.267911E-2,1.9935933E-1,-3.621505E-1,-8.841947E-2,4.4988964E-2,-2.4252518E-1,8.311498E-1,4.62386E-1,9.846213E-2],"categories":[],"categories_nodes":[],"categories_segments":[],"categories_sizes":[],"default_left":[1,1,1,1,1,1,1,1,1,1,1,1,1,1,1,0,0,0,0,0,0,0,0,0,0,0,0,0,0,0,0],"id":21,"left_children":[1,3,5,7,9,11,13,15,17,19,21,23,25,27,29,-1,-1,-1,-1,-1,-1,-1,-1,-1,-1,-1,-1,-1,-1,-1,-1],"loss_changes":[4.9456467E1,4.333863E1,4.4121315E1,3.1940666E1,1.7572075E1,3.763651E1,2.3292614E1,3.0392096E1,1.9149597E1,1.4155563E1,1.36830845E1,3.245969E1,3.6600628E1,1.757565E1,1.5020088E1,0E0,0E0,0E0,0E0,0E0,0E0,0E0,0E0,0E0,0E0,0E0,0E0,0E0,0E0,0E0,0E0],"parents":[2147483647,0,0,1,1,2,2,3,3,4,4,5,5,6,6,7,7,8,8,9,9,10,10,11,11,12,12,13,13,14,14],"right_children":[2,4,6,8,10,12,14,16,18,20,22,24,26,28,30,-1,-1,-1,-1,-1,-1,-1,-1,-1,-1,-1,-1,-1,-1,-1,-1],"split_conditions":[2.865E2,1.5E0,4.85E1,4.1782227E1,2.383276E-1,2.45E1,1.1855172E-1,3.5E0,6.9482756E-1,1.8906397E1,2.5E0,1.2872413E-1,7.475914E0,4.9E1,4.05E1,4.4718497E-2,-5.4819863E-3,7.854075E-3,9.2858344E-2,5.523088E-5,-6.367879E-1,-1.336067E-1,-1.4535822E-2,3.9871868E-2,-7.24301E-2,-1.7683893E-2,8.997793E-3,-4.8505034E-2,1.6622996E-1,9.24772E-2,1.9692427E-2],"split_indices":[11,7,27,9,28,4,6,21,0,0,34,20,8,2,37,0,0,0,0,0,0,0,0,0,0,0,0,0,0,0,0],"split_type":[0,0,0,0,0,0,0,0,0,0,0,0,0,0,0,0,0,0,0,0,0,0,0,0,0,0,0,0,0,0,0],"sum_hessian":[1.450647E4,3.310744E3,1.1195727E4,2.67518E3,6.35564E2,1.053826E4,6.574667E2,2.0182129E3,6.56967E2,4.799698E2,1.5559424E2,1.1751252E3,9.363134E3,1.4350366E2,5.13963E2,1.220844E3,7.9736896E2,1.3297105E2,5.23996E2,4.7863736E2,1.3324516E0,8.435496E1,7.123928E1,1.0611879E3,1.1393734E2,6.313389E3,3.0497454E3,1.2623349E2,1.7270163E1,3.4480493E2,1.6915808E2],"tree_param":{"num_deleted":"0","num_feature":"40","num_nodes":"31","size_leaf_vector":"0"}},{"base_weights":[1.937058E-2,2.1321068E-3,2.0149206E-1,2.8386608E-2,-1.12683386E-1,1.6426444E-1,7.808824E-1,5.1254507E-2,-1.3075386E-1,-4.5083214E-2,-3.0918628E-1,4.234502E-1,9.2418924E-2,8.1817305E-1,-1.7445484E0,7.009481E-2,-2.0996673E-1,-7.312258E-2,-3.9529112E-1,-7.594929E-2,2.704614E-1,-3.6369133E-1,1.7649901E-1,-2.658299E-1,5.109466E-1,1.6028541E-1,-1.8744926E-1,3.620049E-2,8.921212E-1],"categories":[],"categories_nodes":[],"categories_segments":[],"categories_sizes":[],"default_left":[1,1,1,1,1,1,1,1,1,1,1,1,1,1,0,0,0,0,0,0,0,0,0,0,0,0,0,0,0],"id":22,"left_children":[1,3,5,7,9,11,13,15,17,19,21,23,25,27,-1,-1,-1,-1,-1,-1,-1,-1,-1,-1,-1,-1,-1,-1,-1],"loss_changes":[4.5319683E1,3.975312E1,2.690504E1,3.90614E1,3.2597916E1,2.183425E1,7.181179E0,4.6188225E1,2.0552887E1,1.7786266E1,1.6635174E1,1.5361889E1,1.7447487E1,4.28376E0,0E0,0E0,0E0,0E0,0E0,0E0,0E0,0E0,0E0,0E0,0E0,0E0,0E0,0E0,0E0],"parents":[2147483647,0,0,1,1,2,2,3,3,4,4,5,5,6,6,7,7,8,8,9,9,10,10,11,11,12,12,13,13],"right_children":[2,4,6,8,10,12,14,16,18,20,22,24,26,28,-1,-1,-1,-1,-1,-1,-1,-1,-1,-1,-1,-1,-1,-1,-1],"split_conditions":[2.235E2,8.35E1,1.650388E1,5.5E0,1.0245E3,2.855E2,4.7E2,2.5431035E-2,1.75E1,2.05E1,1.95E1,7.8431034E-1,5.55E1,5.5818963E-1,-3.489097E-1,1.4018962E-2,-4.1993346E-2,-1.46245165E-2,-7.905822E-2,-1.5189858E-2,5.4092284E-2,-7.273827E-2,3.5299804E-2,-5.316598E-2,1.0218932E-1,3.2057084E-2,-3.7489854E-2,7.240098E-3,1.7842424E-1],"split_indices":[5,37,0,7,16,11,29,14,25,30,30,9,10,6,0,0,0,0,0,0,0,0,0,0,0,0,0,0,0],"split_type":[0,0,0,0,0,0,0,0,0,0,0,0,0,0,0,0,0,0,0,0,0,0,0,0,0,0,0,0,0],"sum_hessian":[1.4435926E4,1.3187777E4,1.2481487E3,1.0733516E4,2.4542615E3,1.172891E3,7.525766E1,9.38503E3,1.3484856E3,1.8261652E3,6.2809625E2,2.5445676E2,9.1843427E2,7.421159E1,1.0460631E0,8.753763E3,6.3126776E2,1.1073632E3,2.4112247E2,1.6635249E3,1.6264026E2,5.647553E2,6.3340942E1,2.863367E1,2.2582309E2,7.3923785E2,1.7919643E2,6.4319873E0,6.777961E1],"tree_param":{"num_deleted":"0","num_feature":"40","num_nodes":"29","size_leaf_vector":"0"}},{"base_weights":[1.5835015E-2,2.5799222E-2,-2.5322935E-1,-4.150474E-2,7.64861E-2,-2.827467E-1,9.931308E-1,-7.960422E-2,8.715485E-2,1.4235537E-1,7.0148776E-4,-2.6972592E-1,-3.105454E0,-3.6744285E-1,1.1422653E0,-8.981349E-2,3.4651107E-1,5.444964E-2,5.0799835E-1,3.0905481E-2,2.1460718E-1,2.882659E-2,-2.6378125E-1,-9.685386E-1,-2.2067764E-1,-6.236064E-1,-5.106144E0,1.228938E0,3.9733633E-1],"categories":[],"categories_nodes":[],"categories_segments":[],"categories_sizes":[],"default_left":[1,1,1,1,1,1,1,1,1,1,1,1,1,0,1,0,0,0,0,0,0,0,0,0,0,0,0,1,1],"id":23,"left_children":[1,3,5,7,9,11,13,15,17,19,21,23,25,-1,-1,-1,-1,-1,-1,-1,-1,-1,-1,-1,-1,-1,-1,-1,-1],"loss_changes":[3.852137E1,4.726889E1,1.8888062E1,2.9177326E1,3.9453033E1,1.833347E1,2.4462118E0,1.9977995E1,1.870952E1,3.404622E1,2.7337917E1,1.7079014E1,1.1106501E1,0E0,6.432667E-1,0E0,0E0,0E0,0E0,0E0,0E0,0E0,0E0,0E0,0E0,0E0,0E0,0E0,0E0],"parents":[2147483647,0,0,1,1,2,2,3,3,4,4,5,5,6,6,7,7,8,8,9,9,10,10,11,11,12,12,14,14],"right_children":[2,4,6,8,10,12,14,16,18,20,22,24,26,-1,-1,-1,-1,-1,-1,-1,-1,-1,-1,-1,-1,-1,-1,-1,-1],"split_conditions":[3.145E2,2.325E2,2.675E2,1.545E2,3.215E2,5.15E1,-2E0,2.15E1,2.25E1,1.5558621E-1,5.745E3,-1.5E0,8E0,-7.348857E-2,2.2845307E-1,-1.79627E-2,6.9302216E-2,1.0889928E-2,1.0159967E-1,6.181096E-3,4.2921435E-2,5.7653184E-3,-5.275625E-2,-1.9370772E-1,-4.413553E-2,-1.2472128E-1,-1.0212288E0,2.457876E-1,7.946727E-2],"split_indices":[17,32,5,5,11,30,36,30,1,13,16,39,3,0,31,0,0,0,0,0,0,0,0,0,0,0,0,2147483647,2147483647],"split_type":[0,0,0,0,0,0,0,0,0,0,0,0,0,0,0,0,0,0,0,0,0,0,0,0,0,0,0,0,0],"sum_hessian":[1.4368831E4,1.3855811E4,5.13021E2,5.952143E3,7.903667E3,5.0121127E2,1.1809715E1,4.5923354E3,1.3598076E3,4.2283477E3,3.6753193E3,4.9898724E2,2.2240176E0,1.1501886E0,1.0659527E1,4.4849575E3,1.073779E2,1.2618455E3,9.796214E1,1.6631461E3,2.5652014E3,3.322141E3,3.531784E2,3.2629303E1,4.6635794E2,1.0345304E0,1.1894872E0,9.497104E0,1.162423E0],"tree_param":{"num_deleted":"2","num_feature":"40","num_nodes":"29","size_leaf_vector":"0"}},{"base_weights":[1.2974605E-2,4.400755E-2,-6.680811E-2,-1.9415645E-2,1.0823581E-1,2.0115651E-2,-1.3711981E-1,8.621369E-2,-8.970763E-2,1.4454478E-1,-6.0030323E-2,-8.142272E-2,1.6099745E-1,-9.5939E-2,-4.3128544E-1,5.2280042E-2,4.3551964E-1,-1.6761844E-1,1.0520901E-3,5.664867E-2,2.0567936E-1,-4.5307374E0,-5.4632183E-2,-1.11504555E-1,4.3060976E-1,8.691243E-2,4.300972E-1,-1.3674948E-1,1.6641109E-1,-4.1375056E-1,-3.8444526E0],"categories":[],"categories_nodes":[],"categories_segments":[],"categories_sizes":[],"default_left":[1,1,1,1,1,1,1,1,1,1,1,1,1,1,1,0,0,0,0,0,0,0,0,0,0,0,0,0,0,0,0],"id":24,"left_children":[1,3,5,7,9,11,13,15,17,19,21,23,25,27,29,-1,-1,-1,-1,-1,-1,-1,-1,-1,-1,-1,-1,-1,-1,-1,-1],"loss_changes":[3.5455746E1,4.2000397E1,2.451096E1,3.8517998E1,3.1298878E1,2.5654274E1,2.6849026E1,2.456251E1,2.2027721E1,2.2638107E1,2.1879524E1,1.60523E1,1.4968037E1,2.0824547E1,1.6140972E1,0E0,0E0,0E0,0E0,0E0,0E0,0E0,0E0,0E0,0E0,0E0,0E0,0E0,0E0,0E0,0E0],"parents":[2147483647,0,0,1,1,2,2,3,3,4,4,5,5,6,6,7,7,8,8,9,9,10,10,11,11,12,12,13,13,14,14],"right_children":[2,4,6,8,10,12,14,16,18,20,22,24,26,28,30,-1,-1,-1,-1,-1,-1,-1,-1,-1,-1,-1,-1,-1,-1,-1,-1],"split_conditions":[7.37931E-3,9.125E-1,2.245E2,-5E-1,5.05E1,2.5E0,4.126E3,2.55E1,1.5E0,2.655E2,-1.5E0,1.4511879E1,3.75E1,5.745E2,2.1110303E2,1.0456009E-2,8.7103926E-2,-3.352369E-2,2.1041802E-4,1.1329735E-2,4.1135874E-2,-9.061475E-1,-1.0926437E-2,-2.2300912E-2,8.6121954E-2,1.7382486E-2,8.601944E-2,-2.7349895E-2,3.3282217E-2,-8.275011E-2,-7.6889056E-1],"split_indices":[20,31,19,33,2,34,16,27,34,17,8,13,23,32,28,0,0,0,0,0,0,0,0,0,0,0,0,0,0,0,0],"split_type":[0,0,0,0,0,0,0,0,0,0,0,0,0,0,0,0,0,0,0,0,0,0,0,0,0,0,0,0,0,0,0],"sum_hessian":[1.4320333E4,1.0310163E4,4.0101702E3,5.187539E3,5.122624E3,1.7932041E3,2.216966E3,2.0726953E3,3.1148435E3,4.2134927E3,9.09131E2,1.0420908E3,7.511132E2,1.9448295E3,2.721366E2,1.8892673E3,1.8342812E2,1.6760908E3,1.4387527E3,1.7285573E3,2.4849355E3,1.0256909E0,9.081053E2,9.843339E2,5.775696E1,5.8906604E2,1.6204718E2,1.683084E3,2.6174548E2,2.7082413E2,1.3124642E0],"tree_param":{"num_deleted":"0","num_feature":"40","num_nodes":"31","size_leaf_vector":"0"}},{"base_weights":[1.0699375E-2,3.0216135E-2,-1.0500593E-1,-6.468275E-2,6.145363E-2,-3.6697175E-2,-2.5903377E-1,1.333493E-1,-1.7049704E-1,7.708873E-2,-2.2920139E-1,1.9093964E-2,-2.9131618E-1,-3.2132268E-2,-4.522112E-1,1.1618016E-1,9.1564685E-1,-4.017533E-1,-3.9682243E-2,2.8344661E-2,1.5523575E-1,-2.7382705E0,-2.064772E-1,-1.5932122E-2,3.084546E-1,-5.106035E-1,1.5659394E-2,-1.6226964E-1,3.7778398E-1,2.0655295E-1,-5.250708E-1],"categories":[],"categories_nodes":[],"categories_segments":[],"categories_sizes":[],"default_left":[1,1,1,1,1,1,1,1,1,1,1,1,1,1,1,0,0,0,0,0,0,0,0,0,0,0,0,0,0,0,0],"id":25,"left_children":[1,3,5,7,9,11,13,15,17,19,21,23,25,27,29,-1,-1,-1,-1,-1,-1,-1,-1,-1,-1,-1,-1,-1,-1,-1,-1],"loss_changes":[3.222975E1,3.6203754E1,2.166977E1,6.337756E1,4.175558E1,2.0276794E1,2.7731953E1,1.4129192E1,5.9627716E1,3.3211987E1,2.6674261E1,1.1868443E1,1.7275211E1,1.5531043E1,1.641507E1,0E0,0E0,0E0,0E0,0E0,0E0,0E0,0E0,0E0,0E0,0E0,0E0,0E0,0E0,0E0,0E0],"parents":[2147483647,0,0,1,1,2,2,3,3,4,4,5,5,6,6,7,7,8,8,9,9,10,10,11,11,12,12,13,13,14,14],"right_children":[2,4,6,8,10,12,14,16,18,20,22,24,26,28,30,-1,-1,-1,-1,-1,-1,-1,-1,-1,-1,-1,-1,-1,-1,-1,-1],"split_conditions":[3.395E2,1.0694827E-1,7.65E1,-5E-1,1.762069E-2,9.45E1,1.8056035E0,7.221552E0,5E-1,4.5E0,-2.5E0,9.5E0,3.2360172E0,5.015E2,1.35E1,2.3236033E-2,1.8312937E-1,-8.035066E-2,-7.936449E-3,5.668932E-3,3.104715E-2,-5.476541E-1,-4.129544E-2,-3.1864245E-3,6.1690923E-2,-1.021207E-1,3.1318788E-3,-3.245393E-2,7.55568E-2,4.131059E-2,-1.0501416E-1],"split_indices":[19,6,25,6,14,37,13,0,7,22,4,24,9,32,2,0,0,0,0,0,0,0,0,0,0,0,0,0,0,0,0],"split_type":[0,0,0,0,0,0,0,0,0,0,0,0,0,0,0,0,0,0,0,0,0,0,0,0,0,0,0,0,0,0,0],"sum_hessian":[1.4272535E4,1.221268E4,2.059855E3,3.0243555E3,9.188324E3,1.4271062E3,6.327488E2,1.0531908E3,1.9711647E3,8.719371E3,4.6895364E2,1.1706265E3,2.564798E2,2.910359E2,3.417129E2,1.0306614E3,2.2529427E1,7.120955E2,1.2590692E3,5.370039E3,3.3493315E3,4.132512E0,4.6482114E2,1.0442527E3,1.2637367E2,1.4960059E2,1.068792E2,2.209542E2,7.008169E1,3.400382E1,3.0770908E2],"tree_param":{"num_deleted":"0","num_feature":"40","num_nodes":"31","size_leaf_vector":"0"}},{"base_weights":[8.88489E-3,2.276191E-3,3.4005493E-1,3.1585563E-2,-7.1679324E-2,4.249301E-1,-5.7861996E-1,-1.7467784E-2,9.171324E-2,-4.3950016E-3,-1.7232887E-1,7.69186E-1,2.7956694E-1,-3.366651E0,-2.955564E-1,2.8682295E-2,-1.5226887E-1,1.5308623E-1,-7.7162296E-2,-2.4857505E-3,-3.0112312E0,-1.9345732E-1,3.9821425E-1,-1.1166592E0,8.344083E-1,3.9770734E-1,-4.0603665E-1,-1.6501834E0,-4.753159E0,-2.8110697E0,2.6863828E-2],"categories":[],"categories_nodes":[],"categories_segments":[],"categories_sizes":[],"default_left":[1,1,1,1,1,1,1,1,1,1,1,1,1,1,1,0,0,0,0,0,0,0,0,0,0,0,0,0,0,0,0],"id":26,"left_children":[1,3,5,7,9,11,13,15,17,19,21,23,25,27,29,-1,-1,-1,-1,-1,-1,-1,-1,-1,-1,-1,-1,-1,-1,-1,-1],"loss_changes":[3.1126663E1,3.0227995E1,2.1711796E1,2.945884E1,2.6802643E1,1.2724438E1,1.8483404E1,3.421919E1,4.651038E1,1.3588547E1,1.911913E1,9.356705E0,1.4530607E1,4.5478153E0,1.743749E1,0E0,0E0,0E0,0E0,0E0,0E0,0E0,0E0,0E0,0E0,0E0,0E0,0E0,0E0,0E0,0E0],"parents":[2147483647,0,0,1,1,2,2,3,3,4,4,5,5,6,6,7,7,8,8,9,9,10,10,11,11,12,12,13,13,14,14],"right_children":[2,4,6,8,10,12,14,16,18,20,22,24,26,28,30,-1,-1,-1,-1,-1,-1,-1,-1,-1,-1,-1,-1,-1,-1,-1,-1],"split_conditions":[3.45E1,2.25E1,3.4915947E1,7.5E0,2.605E2,2.165E2,1.15E1,1.5E0,6.25E1,2.6145862E2,1.3413793E0,4.1E1,5E-1,1.1E1,-4.5E0,5.736459E-3,-3.0453775E-2,3.0617246E-2,-1.5432459E-2,-4.971501E-4,-6.022462E-1,-3.8691465E-2,7.9642855E-2,-2.2333184E-1,1.6688167E-1,7.954147E-2,-8.120733E-2,-3.300367E-1,-9.506318E-1,-5.6221396E-1,5.372766E-3],"split_indices":[30,25,18,3,29,19,1,33,37,31,14,19,7,3,38,0,0,0,0,0,0,0,0,0,0,0,0,0,0,0,0],"split_type":[0,0,0,0,0,0,0,0,0,0,0,0,0,0,0,0,0,0,0,0,0,0,0,0,0,0,0,0,0,0,0],"sum_hessian":[1.422368E4,1.3945487E4,2.7819226E2,9.987505E3,3.9579824E3,2.5470746E2,2.34848E1,5.500208E3,4.4872964E3,2.3722805E3,1.5857019E3,7.551346E1,1.7919402E2,2.0933352E0,2.1391464E1,4.0974106E3,1.4027975E3,3.2912512E3,1.1960454E3,2.3708462E3,1.434302E0,1.529137E3,5.6564972E1,2.482713E0,7.303075E1,1.5289142E2,2.6302597E1,1.0048774E0,1.0884576E0,2.374431E0,1.9017035E1],"tree_param":{"num_deleted":"0","num_feature":"40","num_nodes":"31","size_leaf_vector":"0"}},{"base_weights":[7.3961047E-3,1.7876892E-3,3.9067212E-1,-1.8043818E-2,1.0433903E-1,4.8068726E-1,-8.1669796E-1,3.0737184E-2,-7.327027E-2,1.1881155E-1,-6.426041E-1,5.1583296E-1,-2.8509164E0,1.512714E-1,-3.5309894E0,-2.740419E-2,9.044598E-2,-7.224046E-2,-4.743617E0,1.2320535E-1,-2.1452074E0,2.1294963E-2,-1.205638E0,5.6295127E-1,-4.5535606E-1,7.205961E-1,-2.8474631E0,-5.5513525E0,-1.14337E0],"categories":[],"categories_nodes":[],"categories_segments":[],"categories_sizes":[],"default_left":[1,1,1,1,1,1,1,1,1,1,1,1,0,1,1,0,0,0,0,0,0,0,0,0,0,0,0,0,0],"id":27,"left_children":[1,3,5,7,9,11,13,15,17,19,21,23,-1,25,27,-1,-1,-1,-1,-1,-1,-1,-1,-1,-1,-1,-1,-1,-1],"loss_changes":[3.0502361E1,2.8447517E1,2.2264452E1,3.1576054E1,2.450278E1,2.2381866E1,3.7420696E1,2.1605831E1,2.6368168E1,2.2117651E1,1.6116995E1,8.647511E0,0E0,1.8114391E1,1.755661E1,0E0,0E0,0E0,0E0,0E0,0E0,0E0,0E0,0E0,0E0,0E0,0E0,0E0,0E0],"parents":[2147483647,0,0,1,1,2,2,3,3,4,4,5,5,6,6,7,7,8,8,9,9,10,10,11,11,13,13,14,14],"right_children":[2,4,6,8,10,12,14,16,18,20,22,24,-1,26,28,-1,-1,-1,-1,-1,-1,-1,-1,-1,-1,-1,-1,-1,-1],"split_conditions":[3.405E2,5.11E2,1.9918533E1,1.985E2,4.295E2,1.55E1,1.2E1,6.356724E-1,2.07E2,1.165E2,2.2E1,6.5E0,-5.701833E-1,9.95E1,2.9E2,-5.480838E-3,1.8089196E-2,-1.4448091E-2,-9.4872344E-1,2.464107E-2,-4.2904148E-1,4.2589926E-3,-2.4112761E-1,1.1259025E-1,-9.107121E-2,1.4411922E-1,-5.6949264E-1,-1.1102705E0,-2.2867401E-1],"split_indices":[5,12,28,29,19,33,12,31,30,36,37,7,0,4,17,0,0,0,0,0,0,0,0,0,0,0,0,0,0],"split_type":[0,0,0,0,0,0,0,0,0,0,0,0,0,0,0,0,0,0,0,0,0,0,0,0,0,0,0,0,0],"sum_hessian":[1.4191755E4,1.3987177E4,2.0457796E2,1.1720593E4,2.2665845E3,1.9042958E2,1.4148378E1,6.223385E3,5.497208E3,2.2235718E3,4.3012825E1,1.885013E2,1.9282862E0,1.0473573E1,3.6748066E0,3.153012E3,3.0703726E3,5.496067E3,1.1409596E0,2.219333E3,4.238612E0,1.9760143E1,2.3252682E1,1.7981609E2,8.685211E0,8.848443E0,1.6251295E0,1.9396062E0,1.7352003E0],"tree_param":{"num_deleted":"0","num_feature":"40","num_nodes":"29","size_leaf_vector":"0"}},{"base_weights":[6.206748E-3,6.368496E-4,3.6815876E-1,-1.576337E-2,1.2041499E-1,5.6410986E-1,-5.44199E-2,-1.9749712E-2,6.0286987E-1,2.679316E-2,2.4249637E-1,6.132843E-1,-1.0580118E0,8.306687E-1,-2.4429303E-1,-3.0360352E-2,1.863423E-1,-1.0726478E0,6.750179E-1,8.492639E-2,-3.198561E-1,3.2359955E-1,-7.896221E-3,9.5431095E-1,4.8862788E-1,2.273742E-1,-4.423757E0,1.040449E0,-1.1559083E0,-1.6296625E0,-8.841811E-2],"categories":[],"categories_nodes":[],"categories_segments":[],"categories_sizes":[],"default_left":[1,1,1,1,1,1,1,1,1,1,1,1,1,1,1,0,0,0,0,0,0,0,0,0,0,0,0,0,0,0,0],"id":28,"left_children":[1,3,5,7,9,11,13,15,17,19,21,23,25,27,29,-1,-1,-1,-1,-1,-1,-1,-1,-1,-1,-1,-1,-1,-1,-1,-1],"loss_changes":[2.8541035E1,2.7393305E1,1.7773264E1,3.0241491E1,1.9191854E1,1.1733742E1,1.1438381E1,2.6647995E1,9.536148E0,1.9156366E1,1.4804913E1,6.005043E0,1.8853384E1,5.089591E0,1.2079832E1,0E0,0E0,0E0,0E0,0E0,0E0,0E0,0E0,0E0,0E0,0E0,0E0,0E0,0E0,0E0,0E0],"parents":[2147483647,0,0,1,1,2,2,3,3,4,4,5,5,6,6,7,7,8,8,9,9,10,10,11,11,12,12,13,13,14,14],"right_children":[2,4,6,8,10,12,14,16,18,20,22,24,26,28,30,-1,-1,-1,-1,-1,-1,-1,-1,-1,-1,-1,-1,-1,-1,-1,-1],"split_conditions":[9.75E1,8.778725E0,2.735E2,2.25E1,2.1775862E-2,2.675E2,5.921207E-1,5.55E1,1.95E1,4.7115E0,1.0079345E1,5.95E1,5.335E2,9.75E1,7.93E-1,-6.0720704E-3,3.726846E-2,-2.1452956E-1,1.3500358E-1,1.6985279E-2,-6.397122E-2,6.471991E-2,-1.5792443E-3,1.908622E-1,9.772558E-2,4.547484E-2,-8.8475144E-1,2.0808981E-1,-2.3118167E-1,-3.259325E-1,-1.7683623E-2],"split_indices":[26,8,19,39,18,26,0,27,4,13,8,36,32,25,0,0,0,0,0,0,0,0,0,0,0,0,0,0,0,0,0],"split_type":[0,0,0,0,0,0,0,0,0,0,0,0,0,0,0,0,0,0,0,0,0,0,0,0,0,0,0,0,0,0,0],"sum_hessian":[1.4158778E4,1.3944292E4,2.1448625E2,1.2264933E4,1.6793594E3,1.4653737E2,6.794888E1,1.2186487E4,7.844541E1,9.5055884E2,7.2880054E2,1.4227267E2,4.2646923E0,1.1952298E1,5.5996582E1,1.1589888E4,5.965987E2,3.193925E0,7.525149E1,8.1411194E2,1.3644695E2,5.5050867E2,1.7829185E2,3.794213E1,1.0433054E2,3.1296556E0,1.1350366E0,1.0844431E1,1.1078677E0,5.592E0,5.0404583E1],"tree_param":{"num_deleted":"0","num_feature":"40","num_nodes":"31","size_leaf_vector":"0"}},{"base_weights":[5.207088E-3,1.3900499E-2,-1.9892535E-1,2.1558866E-2,-2.1568154E-1,-6.567829E-1,-1.16967E-1,6.4581245E-2,-1.733145E-2,-3.0482402E-1,1.3911937E-1,-1.2793043E0,-3.9050388E-1,1.0789125E-1,-2.4272074E-1,6.568734E-2,-5.8295527E0,-8.994275E-2,3.725787E-2,-1.0472203E0,-2.4411224E-1,-4.3184897E-1,3.9741793E-1,-2.9051392E0,-9.9967283E-1,5.7865506E-1,-5.600176E-1,-1.0501361E0,1.8221028E-1,-2.9728168E-1,6.30458E-1],"categories":[],"categories_nodes":[],"categories_segments":[],"categories_sizes":[],"default_left":[1,1,1,1,1,1,1,1,1,1,1,1,1,1,1,0,0,0,0,0,0,0,0,0,0,0,0,0,0,0,0],"id":29,"left_children":[1,3,5,7,9,11,13,15,17,19,21,23,25,27,29,-1,-1,-1,-1,-1,-1,-1,-1,-1,-1,-1,-1,-1,-1,-1,-1],"loss_changes":[2.508569E1,2.383901E1,2.1654621E1,2.195549E1,1.3847366E1,1.4475948E1,1.3854417E1,4.05855E1,2.7318647E1,1.573774E1,1.297606E1,1.1681759E1,1.0123313E1,1.5126624E1,1.4978468E1,0E0,0E0,0E0,0E0,0E0,0E0,0E0,0E0,0E0,0E0,0E0,0E0,0E0,0E0,0E0,0E0],"parents":[2147483647,0,0,1,1,2,2,3,3,4,4,5,5,6,6,7,7,8,8,9,9,10,10,11,11,12,12,13,13,14,14],"right_children":[2,4,6,8,10,12,14,16,18,20,22,24,26,28,30,-1,-1,-1,-1,-1,-1,-1,-1,-1,-1,-1,-1,-1,-1,-1,-1],"split_conditions":[2.15E1,3.155E2,2.2931036E-2,1.5E0,2.5E0,3.5E0,2.085E2,1.1495733E2,2.2543103E-1,3.6219828E0,1.5974137E-1,2.35E1,7.1E1,-4E0,4.15E1,1.3137469E-2,-1.1659106E0,-1.7988551E-2,7.451574E-3,-2.0944408E-1,-4.8822448E-2,-8.63698E-2,7.948359E-2,-5.8102787E-1,-1.9993457E-1,1.15731016E-1,-1.1200352E-1,-2.1002722E-1,3.6442056E-2,-5.9456337E-2,1.260916E-1],"split_indices":[35,17,9,33,35,21,19,31,18,8,6,35,36,10,15,0,0,0,0,0,0,0,0,0,0,0,0,0,0,0,0],"split_type":[0,0,0,0,0,0,0,0,0,0,0,0,0,0,0,0,0,0,0,0,0,0,0,0,0,0,0,0,0,0,0],"sum_hessian":[1.4136779E4,1.3559435E4,5.773451E2,1.3121823E4,4.3761115E2,8.756562E1,4.8977945E2,6.2300493E3,6.891774E3,3.4977032E2,8.784083E1,2.614566E1,6.141996E1,1.7564377E2,3.1413568E2,6.228949E3,1.1002556E0,2.957728E3,3.934046E3,2.6345592E1,3.234247E2,2.7334267E1,6.0506557E1,3.7383578E0,2.2407303E1,9.110442E0,5.2309517E1,1.053079E1,1.6511298E2,2.95714E2,1.8421684E1],"tree_param":{"num_deleted":"0","num_feature":"40","num_nodes":"31","size_leaf_vector":"0"}},{"base_weights":[4.3495796E-3,-1.6651285E-3,2.9106158E-1,6.605722E-2,-2.6664013E-2,3.1142274E-1,-1.8862214E0,2.2615664E-2,1.9461451E-1,-3.553229E-2,1.9391283E-1,3.6671534E-1,-3.4133887E-1,-3.908463E0,-5.2430665E-1,1.6375199E-1,-2.1807753E-2,1.192118E-1,4.354927E-1,-1.3464746E-2,-1.1600974E-1,3.3130243E-1,-1.9289404E-1,3.841791E-1,-1.8362253E0,2.2955441E-1,-1.623199E0],"categories":[],"categories_nodes":[],"categories_segments":[],"categories_sizes":[],"default_left":[1,1,1,1,1,1,1,1,1,1,1,1,1,0,0,0,0,0,0,0,0,0,0,0,0,0,0],"id":30,"left_children":[1,3,5,7,9,11,13,15,17,19,21,23,25,-1,-1,-1,-1,-1,-1,-1,-1,-1,-1,-1,-1,-1,-1],"loss_changes":[2.4355246E1,2.3415968E1,1.2888788E1,2.0823141E1,1.9760525E1,1.0387783E1,7.235552E0,1.7477524E1,1.7096172E1,1.7246563E1,2.0754633E1,1.0234234E1,1.6488094E1,0E0,0E0,0E0,0E0,0E0,0E0,0E0,0E0,0E0,0E0,0E0,0E0,0E0,0E0],"parents":[2147483647,0,0,1,1,2,2,3,3,4,4,5,5,6,6,7,7,8,8,9,9,10,10,11,11,12,12],"right_children":[2,4,6,8,10,12,14,16,18,20,22,24,26,-1,-1,-1,-1,-1,-1,-1,-1,-1,-1,-1,-1,-1,-1],"split_conditions":[2.45E1,-3.5E0,1.7721634E2,4.865E2,6.85E1,1.164315E2,5.805569E0,2.905E2,8.5E0,1.5E0,3.515E2,1.85E1,2.995E2,-7.816926E-1,-1.04861334E-1,3.2750398E-2,-4.361551E-3,2.384236E-2,8.709854E-2,-2.6929493E-3,-2.3201948E-2,6.626049E-2,-3.857881E-2,7.683582E-2,-3.6724505E-1,4.5910884E-2,-3.246398E-1],"split_indices":[1,38,28,32,26,31,0,11,12,7,11,33,29,0,0,0,0,0,0,0,0,0,0,0,0,0,0],"split_type":[0,0,0,0,0,0,0,0,0,0,0,0,0,0,0,0,0,0,0,0,0,0,0,0,0,0,0],"sum_hessian":[1.4121403E4,1.383128E4,2.9012323E2,3.7289604E3,1.010232E4,2.874973E2,2.6259325E0,2.7872585E3,9.417017E2,9.711954E3,3.9036612E2,2.6508786E2,2.2409443E1,1.0028529E0,1.6230795E0,6.672863E2,2.1199724E3,7.1730475E2,2.2439696E2,7.6221147E3,2.0898394E3,2.8807913E2,1.02287E2,2.630629E2,2.0249658E0,1.5537441E1,6.8720016E0],"tree_param":{"num_deleted":"0","num_feature":"40","num_nodes":"27","size_leaf_vector":"0"}},{"base_weights":[3.6711562E-3,-8.7015465E-4,3.3676228E-1,-1.9965453E-2,7.5932056E-2,4.3654296E-1,-2.6655275E-1,-5.8444727E-2,3.6577865E-2,1.2829074E-1,-9.305468E-2,4.7017258E-1,-1.5727289E0,-1.335652E0,4.8671335E-1,-1.7734176E-2,-1.5954053E-1,4.204285E-2,-8.2502425E-1,1.3398111E-1,-1.5203352E0,-7.6100126E-2,-1.3754232E0,5.273421E-1,-4.2633876E-1,-3.466023E0,-2.9497516E-1,-7.4713844E-1,-3.9861815E0,-2.2867594E0,7.538973E-1],"categories":[],"categories_nodes":[],"categories_segments":[],"categories_sizes":[],"default_left":[1,1,1,1,1,1,1,1,1,1,1,1,1,1,1,0,0,0,0,0,0,0,0,0,0,0,0,0,0,0,0],"id":31,"left_children":[1,3,5,7,9,11,13,15,17,19,21,23,25,27,29,-1,-1,-1,-1,-1,-1,-1,-1,-1,-1,-1,-1,-1,-1,-1,-1],"loss_changes":[2.132484E1,2.0393097E1,1.1424391E1,2.4231483E1,2.4499634E1,1.1036074E1,2.1745813E1,2.7273262E1,2.1229654E1,1.9831497E1,1.4218437E1,8.22316E0,6.400185E0,1.7156172E1,1.1844672E1,0E0,0E0,0E0,0E0,0E0,0E0,0E0,0E0,0E0,0E0,0E0,0E0,0E0,0E0,0E0,0E0],"parents":[2147483647,0,0,1,1,2,2,3,3,4,4,5,5,6,6,7,7,8,8,9,9,10,10,11,11,12,12,13,13,14,14],"right_children":[2,4,6,8,10,12,14,16,18,20,22,24,26,28,30,-1,-1,-1,-1,-1,-1,-1,-1,-1,-1,-1,-1,-1,-1,-1,-1],"split_conditions":[3.405E2,2.5E0,5.4805E0,2.5E0,8.05E1,1.55E1,8.358852E1,4.5E0,2.4495389E2,2.05543E2,4.005E2,3.425E2,1.15E1,8.865086E0,-4E0,-3.5468352E-3,-3.1908106E-2,8.408571E-3,-1.6500485E-1,2.6796222E-2,-3.0406705E-1,-1.5220026E-2,-2.7508464E-1,1.05468415E-1,-8.526775E-2,-6.932046E-1,-5.8995035E-2,-1.494277E-1,-7.972363E-1,-4.573519E-1,1.5077947E-1],"split_indices":[5,23,28,34,37,33,9,21,9,31,29,29,27,18,10,0,0,0,0,0,0,0,0,0,0,0,0,0,0,0,0],"split_type":[0,0,0,0,0,0,0,0,0,0,0,0,0,0,0,0,0,0,0,0,0,0,0,0,0,0,0,0,0,0,0],"sum_hessian":[1.4095179E4,1.3905629E4,1.8954958E2,1.1136857E4,2.7687715E3,1.626797E2,2.6869871E1,6.627106E3,4.509752E3,2.1138833E3,6.5488806E2,1.6005765E2,2.6220586E0,1.1090376E1,1.5779496E1,4.724687E3,1.9024188E3,4.4814033E3,2.8348698E1,2.1066802E3,7.2030783E0,6.464211E2,8.466966E0,1.5049951E2,9.558132E0,1.0066475E0,1.6154113E0,9.149463E0,1.9409137E0,1.3382754E0,1.444122E1],"tree_param":{"num_deleted":"0","num_feature":"40","num_nodes":"31","size_leaf_vector":"0"}},{"base_weights":[3.1532897E-3,-3.2645531E-3,2.3201022E-1,7.893641E-3,-1.4332266E-1,5.124057E-1,9.572186E-2,3.4084857E-2,-5.9952643E-2,-1.3498177E-1,-2.410141E0,5.503008E-1,-2.16617E0,1.6424787E-1,-8.207855E-1,-4.515279E-3,1.2272169E-1,-2.4371179E-2,-2.0118551E-1,-1.8194138E-1,2.3248526E-1,-3.324368E0,-1.9318432E-1,6.655884E-1,-1.0200648E-1,1.8640839E-1,-2.1047032E0,-6.0463543E0,-4.8254713E-1],"categories":[],"categories_nodes":[],"categories_segments":[],"categories_sizes":[],"default_left":[1,1,1,1,1,1,1,1,1,1,1,1,0,1,1,0,0,0,0,0,0,0,0,0,0,0,0,0,0],"id":32,"left_children":[1,3,5,7,9,11,13,15,17,19,21,23,-1,25,27,-1,-1,-1,-1,-1,-1,-1,-1,-1,-1,-1,-1,-1,-1],"loss_changes":[2.0680212E1,2.1402939E1,1.466787E1,2.2538816E1,1.9059692E1,1.2811844E1,1.624128E1,3.1311495E1,1.7749763E1,1.7378286E1,7.4132233E0,9.327042E0,0E0,1.2106969E1,3.1531355E1,0E0,0E0,0E0,0E0,0E0,0E0,0E0,0E0,0E0,0E0,0E0,0E0,0E0,0E0],"parents":[2147483647,0,0,1,1,2,2,3,3,4,4,5,5,6,6,7,7,8,8,9,9,10,10,11,11,13,13,14,14],"right_children":[2,4,6,8,10,12,14,16,18,20,22,24,-1,26,28,-1,-1,-1,-1,-1,-1,-1,-1,-1,-1,-1,-1,-1,-1],"split_conditions":[2.85E1,5.7755E3,-3E0,2.15E1,3.285E2,4.245E2,4.255905E1,1.8444138E0,1.5E0,4.5093E4,7.5E0,6.067457E1,-4.3323398E-1,1.005E2,3.2270517E0,-9.030558E-4,2.4544338E-2,-4.874236E-3,-4.0237103E-2,-3.6388274E-2,4.6497054E-2,-6.648736E-1,-3.8636863E-2,1.3311768E-1,-2.0401297E-2,3.7281677E-2,-4.2094064E-1,-1.2092708E0,-9.650943E-2],"split_indices":[30,16,26,25,17,29,18,6,38,16,21,31,0,4,6,0,0,0,0,0,0,0,0,0,0,0,0,0,0],"split_type":[0,0,0,0,0,0,0,0,0,0,0,0,0,0,0,0,0,0,0,0,0,0,0,0,0,0,0,0,0],"sum_hessian":[1.4078313E4,1.3694307E4,3.8400687E2,1.2683802E4,1.01050464E3,1.25515274E2,2.5849158E2,9.151255E3,3.532547E3,1.006876E3,3.6286814E0,1.2382107E2,1.6942023E0,2.4057092E2,1.7920656E1,6.3749863E3,2.7762686E3,2.8217905E3,7.107568E2,8.9283905E2,1.1403693E2,2.5420485E0,1.086633E0,1.05235825E2,1.8585241E1,2.3830997E2,2.2609622E0,1.0181564E0,1.69025E1],"tree_param":{"num_deleted":"0","num_feature":"40","num_nodes":"29","size_leaf_vector":"0"}},{"base_weights":[2.720819E-3,6.7797415E-3,-3.1292203E-1,2.0116237E-3,2.788941E-1,-7.781595E-2,-8.039119E-1,-2.0130475E-3,3.463495E-1,6.48601E-1,1.6793518E-1,-6.5200406E-1,1.5627974E-1,-1.2228125E0,2.7926546E-1,5.7307668E-2,-2.3372635E-2,4.2464736E-1,-6.949688E-1,7.2409654E-1,-3.5141015E-1,-4.1442335E-1,2.7465203E-1,-3.8106385E-1,-1.9840658E0,2.3530108E-1,-1.9003452E0,-2.058599E0,-7.729081E-1,-2.673242E-1,1.5644847E0],"categories":[],"categories_nodes":[],"categories_segments":[],"categories_sizes":[],"default_left":[1,1,1,1,1,1,1,1,1,1,1,1,1,1,1,0,0,0,0,0,0,0,0,0,0,0,0,0,0,0,0],"id":33,"left_children":[1,3,5,7,9,11,13,15,17,19,21,23,25,27,29,-1,-1,-1,-1,-1,-1,-1,-1,-1,-1,-1,-1,-1,-1,-1,-1],"loss_changes":[1.8012413E1,1.8010233E1,2.0591589E1,1.8912292E1,9.790512E0,1.6247673E1,2.6247635E1,1.7088202E1,1.2871969E1,4.183611E0,1.143976E1,1.2559981E1,1.3965431E1,1.5537338E1,1.1394083E1,0E0,0E0,0E0,0E0,0E0,0E0,0E0,0E0,0E0,0E0,0E0,0E0,0E0,0E0,0E0,0E0],"parents":[2147483647,0,0,1,1,2,2,3,3,4,4,5,5,6,6,7,7,8,8,9,9,10,10,11,11,12,12,13,13,14,14],"right_children":[2,4,6,8,10,12,14,16,18,20,22,24,26,28,30,-1,-1,-1,-1,-1,-1,-1,-1,-1,-1,-1,-1,-1,-1,-1,-1],"split_conditions":[4.445E2,3.45E1,6.5E0,1.075E2,6.25E1,5.05E1,3.1939656E-1,-5E0,2.565E2,7.405E2,5.5E0,8.05E1,1.065E2,3.425E2,1.85E1,1.1461534E-2,-4.6745273E-3,8.492947E-2,-1.3899377E-1,1.448193E-1,-7.0282035E-2,-8.288467E-2,5.4930408E-2,-7.621277E-2,-3.9681315E-1,4.7060218E-2,-3.8006905E-1,-4.117198E-1,-1.5458162E-1,-5.346484E-2,3.1289694E-1],"split_indices":[19,30,34,26,4,5,28,38,26,32,15,2,4,11,15,0,0,0,0,0,0,0,0,0,0,0,0,0,0,0,0],"split_type":[0,0,0,0,0,0,0,0,0,0,0,0,0,0,0,0,0,0,0,0,0,0,0,0,0,0,0,0,0,0,0],"sum_hessian":[1.4061559E4,1.3883131E4,1.7842834E2,1.3644156E4,2.3897444E2,1.2072101E2,5.770733E1,1.3486562E4,1.5759459E2,5.5069305E1,1.8390514E2,3.494065E1,8.578036E1,4.161423E1,1.60931E1,3.5703257E3,9.916235E3,1.466198E2,1.097479E1,5.123037E1,3.838935E0,2.8436562E1,1.5546857E2,2.911359E1,5.827062E0,8.266884E1,3.111524E0,1.4469623E1,2.7144608E1,1.1323292E1,4.769808E0],"tree_param":{"num_deleted":"0","num_feature":"40","num_nodes":"31","size_leaf_vector":"0"}},{"base_weights":[2.3234466E-3,7.13125E-3,-2.5751865E-1,-5.9355353E-3,1.0383723E-1,4.2345238E-1,-3.5589188E-1,-1.408716E-2,1.5897948E-1,2.115908E-2,2.024946E-1,-1.6947603E0,6.2204665E-1,-3.3780038E-1,-3.2907615E0,-3.7925787E-2,4.855185E-2,1.2338342E-1,8.250441E-1,8.8315316E-2,-1.9545479E-1,2.7263582E-1,-2.5647348E-2,2.3077333E-1,-3.5175133E0,7.31773E-1,-2.12672E0,-4.776792E-1,-2.9592069E-2],"categories":[],"categories_nodes":[],"categories_segments":[],"categories_sizes":[],"default_left":[1,1,1,1,1,1,1,1,1,1,1,1,1,1,0,0,0,0,0,0,0,0,0,0,0,0,0,0,0],"id":34,"left_children":[1,3,5,7,9,11,13,15,17,19,21,23,25,27,-1,-1,-1,-1,-1,-1,-1,-1,-1,-1,-1,-1,-1,-1,-1],"loss_changes":[1.7551805E1,1.7434637E1,1.7107471E1,1.6337782E1,1.3393776E1,1.3620873E1,1.1732403E1,1.7294226E1,1.3555269E1,1.300022E1,1.1984531E1,9.834602E0,8.996814E0,9.555244E0,0E0,0E0,0E0,0E0,0E0,0E0,0E0,0E0,0E0,0E0,0E0,0E0,0E0,0E0,0E0],"parents":[2147483647,0,0,1,1,2,2,3,3,4,4,5,5,6,6,7,7,8,8,9,9,10,10,11,11,12,12,13,13],"right_children":[2,4,6,8,10,12,14,16,18,20,22,24,26,28,-1,-1,-1,-1,-1,-1,-1,-1,-1,-1,-1,-1,-1,-1,-1],"split_conditions":[1.005E2,8.778725E0,-1E0,2.595E2,7.5E0,1.1E2,5.5E0,4.595E2,1.7815086E1,1.0107794E1,4.35E1,2.5202156E1,8.2E1,3.525E2,-6.581523E-1,-7.5851576E-3,9.710371E-3,2.4676684E-2,1.6500883E-1,1.7663063E-2,-3.9090957E-2,5.4527164E-2,-5.1294696E-3,4.6154667E-2,-7.0350266E-1,1.463546E-1,-4.25344E-1,-9.553584E-2,-5.918414E-3],"split_indices":[25,8,13,5,3,19,38,32,0,8,2,9,26,11,0,0,0,0,0,0,0,0,0,0,0,0,0,0,0],"split_type":[0,0,0,0,0,0,0,0,0,0,0,0,0,0,0,0,0,0,0,0,0,0,0,0,0,0,0,0,0],"sum_hessian":[1.4051487E4,1.3796321E4,2.5516606E2,1.2154043E4,1.6422782E3,3.216741E1,2.2299864E2,1.1581691E4,5.723517E2,8.935975E2,7.486807E2,2.7092998E0,2.9458115E1,2.2171088E2,1.2877631E0,8.38919E3,3.192501E3,5.434061E2,2.89456E1,6.821871E2,2.114104E2,5.7265204E2,1.7602867E2,1.3436042E0,1.3656955E0,2.8378624E1,1.0794898E0,1.5245174E2,6.925915E1],"tree_param":{"num_deleted":"0","num_feature":"40","num_nodes":"29","size_leaf_vector":"0"}},{"base_weights":[1.9987335E-3,8.983226E-3,-1.5930772E-1,-4.5755357E-3,1.10794246E-1,-1.888433E-1,7.934987E-1,5.9602307E-3,-2.1128376E-1,4.1669086E-1,7.025194E-2,-2.7530658E-1,1.341387E-1,1.1113454E0,8.652232E-2,-2.8000495E-3,2.1286376E-1,-6.6778034E-1,-1.1850681E-1,-6.0092986E-1,4.748683E-1,1.4121385E-1,-1.1633549E-1,-2.568751E-1,-1.7477515E0,3.645441E-1,-3.7339723E-1,2.9628542E-1,1.2377125E0,9.9671376E-1,-9.6795636E-1],"categories":[],"categories_nodes":[],"categories_segments":[],"categories_sizes":[],"default_left":[1,1,1,1,1,1,1,1,1,1,1,1,1,1,1,0,0,0,0,0,0,0,0,0,0,0,0,1,1,0,0],"id":35,"left_children":[1,3,5,7,9,11,13,15,17,19,21,23,25,-1,29,-1,-1,-1,-1,-1,-1,-1,-1,-1,-1,-1,-1,-1,-1,-1,-1],"loss_changes":[1.58074875E1,1.8567368E1,1.639103E1,2.5850657E1,1.9597187E1,1.5778183E1,3.9163122E0,2.0471697E1,2.436735E1,1.0967327E1,1.8483505E1,1.2043457E1,1.3960329E1,1.2023993E0,5.357923E0,0E0,0E0,0E0,0E0,0E0,0E0,0E0,0E0,0E0,0E0,0E0,0E0,0E0,0E0,0E0,0E0],"parents":[2147483647,0,0,1,1,2,2,3,3,4,4,5,5,6,6,7,7,8,8,9,9,10,10,11,11,12,12,13,13,14,14],"right_children":[2,4,6,8,10,12,14,16,18,20,22,24,26,-1,30,-1,-1,-1,-1,-1,-1,-1,-1,-1,-1,-1,-1,-1,-1,-1,-1],"split_conditions":[2.15E1,1.45E1,5.05E1,2.6501293E1,-2E0,3.0084481E0,8.05E1,1.05E1,2.185474E1,1.85E1,2.2706896E-2,2.850431E0,9.5E0,2.2226909E-1,3.75E1,-5.600099E-4,4.257275E-2,-1.3355607E-1,-2.3701362E-2,-1.2018597E-1,9.497366E-2,2.824277E-2,-2.3267098E-2,-5.137502E-2,-3.495503E-1,7.290882E-2,-7.467945E-2,5.9257086E-2,2.475425E-1,1.9934276E-1,-1.9359128E-1],"split_indices":[35,24,27,31,33,18,25,39,9,24,20,18,24,35,35,0,0,0,0,0,0,0,0,0,0,0,0,2147483647,2147483647,0,0],"split_type":[0,0,0,0,0,0,0,0,0,0,0,0,0,0,0,0,0,0,0,0,0,0,0,0,0,0,0,0,0,0,0],"sum_hessian":[1.4031781E4,1.3449548E4,5.8223303E2,1.1868869E4,1.5806792E3,5.6479016E2,1.7442848E1,1.1293276E4,5.755926E2,1.8487791E2,1.3958013E3,4.4555475E2,1.1923545E2,1.1996503E1,5.446345E0,1.0834561E4,4.58716E2,9.713334E1,4.7845926E2,9.954435E0,1.749235E2,1.0112705E3,3.8453082E2,4.4013168E2,5.423058E0,8.203357E1,3.720188E1,1.6513138E0,1.0345189E1,2.9302464E0,2.5160987E0],"tree_param":{"num_deleted":"2","num_feature":"40","num_nodes":"31","size_leaf_vector":"0"}},{"base_weights":[1.7751812E-3,8.095136E-3,-1.6089466E-1,6.5895915E-3,7.5812566E-1,-4.6462137E-2,-3.6692473E-1,1.8319596E-2,-8.615721E-2,1.0165473E0,-1.680759E-1,-1.7288762E-1,2.75352E-1,-2.4356934E-1,-1.254356E0,3.227976E-2,-1.2137891E-1,-1.4857225E-2,-2.6164988E-1,1.1856539E0,2.7269218E-2,-1.1793182E0,7.3425096E-1,-1.5335043E-1,-3.0225437E0,3.429613E-1,-1.669598E0,-3.6704892E-1,6.149209E-1,-1.6253455E0,1.1507757E0],"categories":[],"categories_nodes":[],"categories_segments":[],"categories_sizes":[],"default_left":[1,1,1,1,1,1,1,1,1,1,1,1,1,1,1,0,0,0,0,0,0,0,0,0,0,0,0,0,0,0,0],"id":36,"left_children":[1,3,5,7,9,11,13,15,17,19,21,23,25,27,29,-1,-1,-1,-1,-1,-1,-1,-1,-1,-1,-1,-1,-1,-1,-1,-1],"loss_changes":[1.4416122E1,1.5235837E1,1.2358684E1,1.46566E1,6.48964E0,1.3723997E1,2.0459318E1,2.3324282E1,1.8922832E1,3.5241623E0,5.4887733E0,1.3421354E1,1.2534672E1,1.7447277E1,2.0495079E1,0E0,0E0,0E0,0E0,0E0,0E0,0E0,0E0,0E0,0E0,0E0,0E0,0E0,0E0,0E0,0E0],"parents":[2147483647,0,0,1,1,2,2,3,3,4,4,5,5,6,6,7,7,8,8,9,9,10,10,11,11,12,12,13,13,14,14],"right_children":[2,4,6,8,10,12,14,16,18,20,22,24,26,28,30,-1,-1,-1,-1,-1,-1,-1,-1,-1,-1,-1,-1,-1,-1,-1,-1],"split_conditions":[3.145E2,3.7879326E1,4.685E2,5.5E0,1.0669325E2,2.5E0,1.2160345E1,3.0924135E-1,2.900862E-1,2.5E0,-2E0,2.65E1,5.25E1,4.7452583E0,1.9E1,6.455952E-3,-2.4275783E-2,-2.971445E-3,-5.2329976E-2,2.3713079E-1,5.4538436E-3,-2.3586364E-1,1.468502E-1,-3.0670086E-2,-6.0450876E-1,6.8592265E-2,-3.339196E-1,-7.340979E-2,1.22984186E-1,-3.250691E-1,2.3015514E-1],"split_indices":[17,14,32,7,14,39,31,20,6,26,37,30,35,31,24,0,0,0,0,0,0,0,0,0,0,0,0,0,0,0,0],"split_type":[0,0,0,0,0,0,0,0,0,0,0,0,0,0,0,0,0,0,0,0,0,0,0,0,0,0,0,0,0,0,0],"sum_hessian":[1.40238955E4,1.3499545E4,5.2435065E2,1.3472583E4,2.6962006E1,3.3719724E2,1.8715341E2,1.1960109E4,1.5124735E3,2.1083609E1,5.878398E0,2.4213596E2,9.506129E1,1.6439908E2,2.2754333E1,1.0873624E4,1.0864849E3,1.0756029E3,4.368706E2,1.7985607E1,3.0980024E0,2.7673287E0,3.111069E0,2.4056157E2,1.5743979E0,9.192671E1,3.134576E0,1.4377051E2,2.0628576E1,1.9736166E1,3.0181684E0],"tree_param":{"num_deleted":"0","num_feature":"40","num_nodes":"31","size_leaf_vector":"0"}},{"base_weights":[1.5531478E-3,-6.0820845E-3,1.3315907E-1,8.53246E-2,-1.795793E-2,-2.1206675E0,1.4774641E-1,8.998573E-2,-2.291637E0,-2.6003126E-2,1.31346E-1,-3.2382894E0,-1.2109765E0,1.3121398E-1,1.0805954E0,-1.3242892E-2,1.9984531E-1,-5.889461E0,5.789348E-1,-5.241901E-2,2.6423557E-2,1.4503951E-1,-1.5216668E0,-4.4544864E0,-1.8546351E0,-2.143927E-1,-2.6463234E0,-1.0562845E-1,1.9988336E-1,1.1830071E0,-1.18495874E-1],"categories":[],"categories_nodes":[],"categories_segments":[],"categories_sizes":[],"default_left":[1,1,1,1,1,1,1,1,1,1,1,1,1,1,1,0,0,0,0,0,0,0,0,0,0,0,0,0,0,1,1],"id":37,"left_children":[1,3,5,7,9,11,13,15,17,19,21,23,25,27,-1,-1,-1,-1,-1,-1,-1,-1,-1,-1,-1,-1,-1,-1,-1,-1,-1],"loss_changes":[1.4077619E1,1.4372209E1,2.5258636E1,1.685844E1,1.4074647E1,4.712515E0,1.1750879E1,1.7233368E1,3.103785E1,1.5399056E1,1.3561822E1,3.0312748E0,3.9904923E0,1.220261E1,1.6500807E0,0E0,0E0,0E0,0E0,0E0,0E0,0E0,0E0,0E0,0E0,0E0,0E0,0E0,0E0,0E0,0E0],"parents":[2147483647,0,0,1,1,2,2,3,3,4,4,5,5,6,6,7,7,8,8,9,9,10,10,11,11,12,12,13,13,14,14],"right_children":[2,4,6,8,10,12,14,16,18,20,22,24,26,28,-1,-1,-1,-1,-1,-1,-1,-1,-1,-1,-1,-1,-1,-1,-1,-1,-1],"split_conditions":[5.05E1,1.85E1,1.095E2,9.5E0,5.35E1,4.1E1,1.75E1,-2.5E0,6.5E0,1.4584482E-1,5.1509052E1,2.6081896E0,7E0,1.2636207E-1,2.1611908E-1,-2.6485785E-3,3.9969064E-2,-1.1778922E0,1.1578696E-1,-1.0483802E-2,5.2847113E-3,2.9007902E-2,-3.0433336E-1,-8.908973E-1,-3.7092704E-1,-4.2878542E-2,-5.292647E-1,-2.1125691E-2,3.997667E-2,2.3660143E-1,-2.3699176E-2],"split_indices":[27,4,11,33,26,36,7,36,4,28,18,8,7,6,14,0,0,0,0,0,0,0,0,0,0,0,0,0,0,2147483647,2147483647],"split_type":[0,0,0,0,0,0,0,0,0,0,0,0,0,0,0,0,0,0,0,0,0,0,0,0,0,0,0,0,0,0,0],"sum_hessian":[1.4008399E4,1.3240244E4,7.681557E2,1.5222721E3,1.1717972E4,4.8724346E0,7.6328326E2,1.519362E3,2.9100323E0,1.1118953E4,5.9901843E2,2.1036158E0,2.7688189E0,7.5007794E2,1.3205292E1,7.833048E2,7.360572E2,1.2613604E0,1.648672E0,7.3937197E3,3.725234E3,5.9416425E2,4.854199E0,1.0357054E0,1.0679103E0,1.684241E0,1.0845778E0,1.6855286E2,5.815251E2,1.2174724E1,1.0305676E0],"tree_param":{"num_deleted":"2","num_feature":"40","num_nodes":"31","size_leaf_vector":"0"}},{"base_weights":[1.4149152E-3,-2.887576E-3,2.2278754E-1,3.177188E-2,-3.5122912E-2,3.8735336E-1,5.063888E-2,6.16276E-2,-6.673786E-2,-2.2786986E-2,-2.5212148E-1,-1.2573564E0,4.3332657E-1,-1.7539728E-1,4.511761E-1,3.493215E-2,2.0660901E-1,-1.2568273E-1,1.4308223E-1,2.2744672E-2,-9.6407905E-2,-1.6833156E0,-2.2396776E-1,-4.242865E0,1.0768135E0,4.7435394E-1,-1.1003829E0,-1.7030416E0,-7.419556E-2,5.381555E-1,-1.8207291E0],"categories":[],"categories_nodes":[],"categories_segments":[],"categories_sizes":[],"default_left":[1,1,1,1,1,1,1,1,1,1,1,1,1,1,1,0,0,0,0,0,0,0,0,0,0,0,0,0,0,0,0],"id":38,"left_children":[1,3,5,7,9,11,13,15,17,19,21,23,25,27,29,-1,-1,-1,-1,-1,-1,-1,-1,-1,-1,-1,-1,-1,-1,-1,-1],"loss_changes":[1.3330148E1,1.533614E1,7.5534134E0,1.9453747E1,1.9035164E1,1.0340515E1,1.1824509E1,1.9643435E1,1.9027199E1,2.2559341E1,1.5368113E1,2.6263472E1,8.380716E0,1.2877417E1,9.364592E0,0E0,0E0,0E0,0E0,0E0,0E0,0E0,0E0,0E0,0E0,0E0,0E0,0E0,0E0,0E0,0E0],"parents":[2147483647,0,0,1,1,2,2,3,3,4,4,5,5,6,6,7,7,8,8,9,9,10,10,11,11,12,12,13,13,14,14],"right_children":[2,4,6,8,10,12,14,16,18,20,22,24,26,28,30,-1,-1,-1,-1,-1,-1,-1,-1,-1,-1,-1,-1,-1,-1,-1,-1],"split_conditions":[2.45E1,1.5E0,5.85E1,2.5E0,9.95E1,1.015E2,1.55E1,1.25E1,1.2833104E0,1.6703448E0,5E-1,1.65E1,1.9276077E2,6.35E1,9.75E1,6.9864304E-3,4.1321803E-2,-2.5136545E-2,2.8616447E-2,4.5489348E-3,-1.9281581E-2,-3.3666313E-1,-4.4793554E-2,-8.48573E-1,2.153627E-1,9.487079E-2,-2.2007659E-1,-3.4060833E-1,-1.4839112E-2,1.076311E-1,-3.6414585E-1],"split_indices":[1,33,25,35,36,5,24,27,31,13,15,2,31,25,4,0,0,0,0,0,0,0,0,0,0,0,0,0,0,0,0],"split_type":[0,0,0,0,0,0,0,0,0,0,0,0,0,0,0,0,0,0,0,0,0,0,0,0,0,0,0,0,0,0,0],"sum_hessian":[1.3993165E4,1.3726407E4,2.6675812E2,6.614347E3,7.1120596E3,1.3630977E2,1.3044835E2,5.076055E3,1.5382922E3,6.7296157E3,3.8244406E2,3.6521013E0,1.3265767E2,8.339752E1,4.7050823E1,4.2868667E3,7.891883E2,1.2009762E3,3.3731604E2,4.157979E3,2.5716365E3,7.294434E0,3.7514963E2,1.5800471E0,2.0720541E0,1.2925339E2,3.404277E0,5.1088166E0,7.8288704E1,4.5369938E1,1.6808879E0],"tree_param":{"num_deleted":"0","num_feature":"40","num_nodes":"31","size_leaf_vector":"0"}},{"base_weights":[1.3358193E-3,-4.5694675E-2,2.2992726E-2,4.0706288E-2,-2.1150777E-1,1.2507325E-1,3.853233E-3,4.3726824E-2,-1.9425043E0,-1.6034439E-1,-8.251168E-1,1.3634177E-1,-1.5178456E0,-4.1069992E-2,5.5774797E-2,7.617017E-2,-8.936189E-2,-2.821769E0,-9.55109E-3,-3.6629492E-1,-7.511905E-2,-2.5046867E-1,-1.2634323E0,-2.0492876E0,1.4155261E-1,-2.9977174E0,4.9914935E-1,1.358328E-1,-6.2037088E-2,6.540494E-2,-7.0399094E-1],"categories":[],"categories_nodes":[],"categories_segments":[],"categories_sizes":[],"default_left":[1,1,1,1,1,1,1,1,1,1,1,1,1,1,1,0,0,0,0,0,0,0,0,0,0,0,0,0,0,0,0],"id":39,"left_children":[1,3,5,7,9,11,13,15,17,19,21,23,25,27,29,-1,-1,-1,-1,-1,-1,-1,-1,-1,-1,-1,-1,-1,-1,-1,-1],"loss_changes":[1.4244602E1,6.3174164E1,1.8708237E1,1.7352417E1,4.740551E1,2.7990292E1,1.8810165E1,1.2498748E1,7.456455E0,2.4469212E1,2.9239166E1,1.7103012E1,3.0866972E1,1.6036161E1,2.7367641E1,0E0,0E0,0E0,0E0,0E0,0E0,0E0,0E0,0E0,0E0,0E0,0E0,0E0,0E0,0E0,0E0],"parents":[2147483647,0,0,1,1,2,2,3,3,4,4,5,5,6,6,7,7,8,8,9,9,10,10,11,11,12,12,13,13,14,14],"right_children":[2,4,6,8,10,12,14,16,18,20,22,24,26,28,30,-1,-1,-1,-1,-1,-1,-1,-1,-1,-1,-1,-1,-1,-1,-1,-1],"split_conditions":[9.863793E-2,-5E-1,1.455E2,3.2995E0,3.3823276E0,3.675E2,9.5E0,1.15E1,-5E-1,5E-1,9.155172E-2,2.25E1,2.45E1,-2E0,1.015E2,1.5234034E-2,-1.7872378E-2,-5.643538E-1,-1.910218E-3,-7.325899E-2,-1.502381E-2,-5.0093736E-2,-2.5268647E-1,-4.098575E-1,2.8310522E-2,-5.995435E-1,9.9829875E-2,2.716656E-2,-1.2407417E-2,1.3080987E-2,-1.407982E-1],"split_indices":[13,13,19,20,0,29,3,3,31,7,6,11,2,33,25,0,0,0,0,0,0,0,0,0,0,0,0,0,0,0,0],"split_type":[0,0,0,0,0,0,0,0,0,0,0,0,0,0,0,0,0,0,0,0,0,0,0,0,0,0,0,0,0,0,0],"sum_hessian":[1.3985467E4,4.4094014E3,9.576065E3,2.898867E3,1.5105347E3,1.5118284E3,8.0642373E3,2.8945295E3,4.33724E0,1.3943721E3,1.16162506E2,1.5015973E3,1.0231002E1,4.323398E3,3.7408396E3,2.327302E3,5.672277E2,2.9562006E0,1.3810397E0,4.0802423E2,9.863479E2,5.0320145E1,6.584236E1,3.503745E0,1.4980936E3,5.8851123E0,4.34589E0,4.5803485E2,3.8653628E3,3.6940916E3,4.674807E1],"tree_param":{"num_deleted":"0","num_feature":"40","num_nodes":"31","size_leaf_vector":"0"}},{"base_weights":[1.3407187E-3,-6.1514834E-4,4.188359E-1,2.760914E-3,-2.652367E-1,6.0817903E-1,-4.148933E-1,-2.3552284E-2,4.0490445E-2,-6.075524E-2,-6.7769897E-1,7.0890194E-1,-5.16916E-1,-1.8464649E0,3.8073027E-1,-7.797782E-2,3.310583E-2,4.982885E-2,-2.502961E-1,-3.0207297E-2,-3.0634704E0,-3.1280382E0,-5.772536E-1,4.0750182E-1,1.1087811E0,8.2690805E-1,-1.457601E0,-8.099922E-1,-3.6916327E0,8.6662495E-1,-1.2757372E0],"categories":[],"categories_nodes":[],"categories_segments":[],"categories_sizes":[],"default_left":[1,1,1,1,1,1,1,1,1,1,1,1,1,1,1,0,0,0,0,0,0,0,0,0,0,0,0,0,0,0,0],"id":40,"left_children":[1,3,5,7,9,11,13,15,17,19,21,23,25,27,29,-1,-1,-1,-1,-1,-1,-1,-1,-1,-1,-1,-1,-1,-1,-1,-1],"loss_changes":[1.1409965E1,1.24232235E1,1.030453E1,1.3628964E1,1.4764469E1,6.048067E0,1.3831573E1,2.4939144E1,1.5315532E1,1.0713811E1,1.4125389E1,5.8363914E0,5.6461887E0,8.04231E0,6.366565E0,0E0,0E0,0E0,0E0,0E0,0E0,0E0,0E0,0E0,0E0,0E0,0E0,0E0,0E0,0E0,0E0],"parents":[2147483647,0,0,1,1,2,2,3,3,4,4,5,5,6,6,7,7,8,8,9,9,10,10,11,11,12,12,13,13,14,14],"right_children":[2,4,6,8,10,12,14,16,18,20,22,24,26,28,30,-1,-1,-1,-1,-1,-1,-1,-1,-1,-1,-1,-1,-1,-1,-1,-1],"split_conditions":[1.7598984E1,4.445E2,8.271552E-1,2.5E0,3.005E2,9.877501E0,2.8075863E1,6.171207E-1,1.25E1,1.785E2,3.015E2,5E-1,7.95E1,2.94E2,6.5431036E-2,-1.5595565E-2,6.6211666E-3,9.96577E-3,-5.0059218E-2,-6.0414593E-3,-6.126941E-1,-6.2560767E-1,-1.1545072E-1,8.150037E-2,2.2175622E-1,1.6538161E-1,-2.915202E-1,-1.6199844E-1,-7.3832655E-1,1.7332499E-1,-2.5514743E-1],"split_indices":[14,19,28,34,29,8,14,31,7,26,29,39,4,17,20,0,0,0,0,0,0,0,0,0,0,0,0,0,0,0,0],"split_type":[0,0,0,0,0,0,0,0,0,0,0,0,0,0,0,0,0,0,0,0,0,0,0,0,0,0,0,0,0,0,0],"sum_hessian":[1.3967911E4,1.3902823E4,6.508778E1,1.3727713E4,1.7510997E2,5.3066498E1,1.2021288E1,8.0872744E3,5.6404385E3,1.1713922E2,5.7970757E1,4.873729E1,4.329211E0,4.266911E0,7.754377E0,4.124984E3,3.9622905E3,5.4650234E3,1.7541487E2,1.1603053E2,1.1086851E0,2.198472E0,5.5772285E1,2.7882914E1,2.0854374E1,1.7816215E0,2.5475898E0,2.798062E0,1.468849E0,6.0252986E0,1.7290785E0],"tree_param":{"num_deleted":"0","num_feature":"40","num_nodes":"31","size_leaf_vector":"0"}},{"base_weights":[1.1531977E-3,1.7957624E-2,-4.977262E-2,2.079794E-3,1.14705615E-1,-6.228178E-2,2.1178506E-1,-5.529801E-2,2.7927501E-2,1.4087537E-1,-2.5121668E-1,-2.7860824E-2,-1.9544156E-1,4.114267E-1,-1.7360274E-1,-4.339895E-2,-7.645396E-1,2.4137983E-1,1.5134495E-2,1.94424E-1,-4.9443234E-2,-1.364477E0,-8.3581544E-2,2.163928E-2,-1.4845717E-1,-2.2659338E-1,3.8735372E-1,9.0801203E-1,2.2995569E-1,-9.9149674E-1,1.6261412E-1],"categories":[],"categories_nodes":[],"categories_segments":[],"categories_sizes":[],"default_left":[1,1,1,1,1,1,1,1,1,1,1,1,1,1,1,0,0,0,0,0,0,0,0,0,0,0,0,0,0,0,0],"id":41,"left_children":[1,3,5,7,9,11,13,15,17,19,21,23,25,27,29,-1,-1,-1,-1,-1,-1,-1,-1,-1,-1,-1,-1,-1,-1,-1,-1],"loss_changes":[1.1941238E1,1.6116167E1,1.1326466E1,1.3366959E1,1.41649685E1,1.5141394E1,1.2163044E1,2.3612364E1,1.6965733E1,1.4070328E1,1.8400597E1,1.5674649E1,1.2323956E1,9.356836E0,1.4853655E1,0E0,0E0,0E0,0E0,0E0,0E0,0E0,0E0,0E0,0E0,0E0,0E0,0E0,0E0,0E0,0E0],"parents":[2147483647,0,0,1,1,2,2,3,3,4,4,5,5,6,6,7,7,8,8,9,9,10,10,11,11,12,12,13,13,14,14],"right_children":[2,4,6,8,10,12,14,16,18,20,22,24,26,28,30,-1,-1,-1,-1,-1,-1,-1,-1,-1,-1,-1,-1,-1,-1,-1,-1],"split_conditions":[6.85E1,4.85E1,3.25E1,-1.5E0,8.45E1,4.4252106E1,7.540948E0,3.9931465E1,-1.5E0,5.5E0,2.45E1,3.185E2,3.2004036E1,-3E0,1.25E1,-8.67979E-3,-1.5290792E-1,4.8275966E-2,3.026899E-3,3.88848E-2,-9.888647E-3,-2.7289543E-1,-1.6716309E-2,4.327856E-3,-2.9691434E-2,-4.5318674E-2,7.747074E-2,1.816024E-1,4.5991138E-2,-1.9829935E-1,3.2522824E-2],"split_indices":[37,23,30,10,23,9,18,31,34,26,5,19,13,27,1,0,0,0,0,0,0,0,0,0,0,0,0,0,0,0,0],"split_type":[0,0,0,0,0,0,0,0,0,0,0,0,0,0,0,0,0,0,0,0,0,0,0,0,0,0,0,0,0,0,0],"sum_hessian":[1.3953878E4,1.0491987E4,3.4618904E3,9.01299E3,1.4789976E3,3.303966E3,1.5792442E2,2.799059E3,6.2139307E3,1.3803478E3,9.864971E1,2.6254587E3,6.785074E2,1.040467E2,5.3877716E1,2.7529583E3,4.6100845E1,3.5125308E2,5.8626777E3,1.0772894E3,3.030584E2,1.2839526E1,8.581019E1,1.8613994E3,7.6405927E2,6.441353E2,3.4372036E1,2.7759119E1,7.628758E1,1.5665924E1,3.8211792E1],"tree_param":{"num_deleted":"0","num_feature":"40","num_nodes":"31","size_leaf_vector":"0"}},{"base_weights":[1.1081308E-3,-1.7370343E-3,2.80601E-1,6.6038286E-3,-1.01162955E-1,4.6824434E-1,-1.6626635E-1,4.822141E-3,5.634877E-1,-7.1470246E-2,-4.976014E-1,5.0489986E-1,-1.9131123E0,8.373403E-1,-4.3910974E-1,-6.296681E-3,9.267792E-2,7.0923454E-1,-1.5114787E0,-1.0956971E-1,2.6784155E-1,-8.8966405E-1,1.5085226E-1,5.3029794E-1,-1.7297506E0,1.0328156E0,1.9237229E-1,-2.17225E0,-2.3657568E-1],"categories":[],"categories_nodes":[],"categories_segments":[],"categories_sizes":[],"default_left":[1,1,1,1,1,1,1,1,1,1,1,1,0,1,1,0,0,0,0,0,0,0,0,0,0,1,1,0,0],"id":42,"left_children":[1,3,5,7,9,11,13,15,17,19,21,23,-1,-1,27,-1,-1,-1,-1,-1,-1,-1,-1,-1,-1,-1,-1,-1,-1],"loss_changes":[1.1093831E1,1.1451E1,1.1796655E1,1.263291E1,1.2572064E1,8.696886E0,1.1414766E1,1.2404675E1,1.2344664E1,1.2854923E1,1.8939848E1,5.589525E0,0E0,1.0975695E0,1.144323E1,0E0,0E0,0E0,0E0,0E0,0E0,0E0,0E0,0E0,0E0,0E0,0E0,0E0,0E0],"parents":[2147483647,0,0,1,1,2,2,3,3,4,4,5,5,6,6,7,7,8,8,9,9,10,10,11,11,13,13,14,14],"right_children":[2,4,6,8,10,12,14,16,18,20,22,24,-1,-1,28,-1,-1,-1,-1,-1,-1,-1,-1,-1,-1,-1,-1,-1,-1],"split_conditions":[3.475E2,5.6435E3,8.032241E-1,2.65E1,6.735E2,1.55E1,5.15E1,8.839465E0,2.125E2,4.7724E4,2.5E0,2.7107759E0,-3.8262245E-1,1.6746806E-1,5.65E1,-1.2593361E-3,1.8535584E-2,1.4184691E-1,-3.0229574E-1,-2.1913944E-2,5.356831E-2,-1.7793281E-1,3.0170454E-2,1.0605959E-1,-3.4595013E-1,2.0656312E-1,3.847446E-2,-4.3445E-1,-4.7315136E-2],"split_indices":[5,16,28,39,32,33,4,8,30,16,27,20,0,16,4,0,0,0,0,0,0,0,0,0,0,2147483647,2147483647,0,0],"split_type":[0,0,0,0,0,0,0,0,0,0,0,0,0,0,0,0,0,0,0,0,0,0,0,0,0,0,0,0,0],"sum_hessian":[1.394732E4,1.3806802E4,1.4051814E2,1.2738158E4,1.0686442E3,9.89763E1,4.1541843E1,1.2697619E4,4.0538326E1,9.942792E2,7.436502E1,9.7532585E1,1.443719E0,8.841853E0,3.2699993E1,1.1271122E4,1.4264978E3,3.792393E1,2.6143973E0,8.93975E2,1.0030424E2,4.6338467E1,2.8026554E1,9.649203E1,1.0405527E0,6.742206E0,2.0996463E0,3.3473852E0,2.9352608E1],"tree_param":{"num_deleted":"2","num_feature":"40","num_nodes":"29","size_leaf_vector":"0"}},{"base_weights":[1.0102505E-3,4.677537E-2,-1.5085098E-2,2.188357E-1,1.433649E-2,-2.116622E-2,1.9775194E-1,2.292566E-1,-1.3390635E0,2.4586767E-2,-4.570768E-1,-1.156461E-2,-1.3941707E-1,3.2568794E-1,-3.161573E-1,1.92316E-1,6.627459E-1,-2.3717108E0,1.1937553E0,-2.473069E-2,1.371816E-1,-8.133669E-1,2.4902767E-1,-3.9052214E-2,5.252304E-2,-1.8058712E0,-1.2080995E-1,3.5546935E-1,-1.8086876E0,-1.555939E0,1.9305325E-1],"categories":[],"categories_nodes":[],"categories_segments":[],"categories_sizes":[],"default_left":[1,1,1,1,1,1,1,1,1,1,1,1,1,1,1,0,0,0,0,0,0,0,0,0,0,0,0,0,0,0,0],"id":43,"left_children":[1,3,5,7,9,11,13,15,17,19,21,23,25,27,29,-1,-1,-1,-1,-1,-1,-1,-1,-1,-1,-1,-1,-1,-1,-1,-1],"loss_changes":[1.0266414E1,2.0238058E1,1.3343437E1,9.347725E0,1.4740616E1,1.1379982E1,1.883519E1,9.133348E0,1.0209021E1,1.6584719E1,1.6351082E1,1.6333103E1,2.3306654E1,1.4606827E1,3.608152E1,0E0,0E0,0E0,0E0,0E0,0E0,0E0,0E0,0E0,0E0,0E0,0E0,0E0,0E0,0E0,0E0],"parents":[2147483647,0,0,1,1,2,2,3,3,4,4,5,5,6,6,7,7,8,8,9,9,10,10,11,11,12,12,13,13,14,14],"right_children":[2,4,6,8,10,12,14,16,18,20,22,24,26,28,30,-1,-1,-1,-1,-1,-1,-1,-1,-1,-1,-1,-1,-1,-1,-1,-1],"split_conditions":[-5E0,-1.5E0,1.2157086E1,7.45E1,3.715E2,6.167672E0,9.5E0,5.202931E-1,0E0,1.6958449E0,4.025E2,1.0043104E-1,6.2939653E0,1.005E2,2.15E1,3.84632E-2,1.3254918E-1,-4.7434217E-1,2.3875105E-1,-4.9461382E-3,2.743632E-2,-1.6267338E-1,4.9805533E-2,-7.810443E-3,1.0504608E-2,-3.6117426E-1,-2.416199E-2,7.109387E-2,-3.6173752E-1,-3.111878E-1,3.861065E-2],"split_indices":[38,25,0,35,29,28,26,14,26,6,29,28,28,25,26,0,0,0,0,0,0,0,0,0,0,0,0,0,0,0,0],"split_type":[0,0,0,0,0,0,0,0,0,0,0,0,0,0,0,0,0,0,0,0,0,0,0,0,0,0,0,0,0,0,0],"sum_hessian":[1.3936899E4,3.6263416E3,1.0310559E4,5.751213E2,3.0512202E3,1.0024256E4,2.8630234E2,5.713635E2,3.757708E0,2.9863708E3,6.484939E1,9.27159E3,7.5266614E2,2.2927048E2,5.7031868E1,5.2660846E2,4.4755074E1,2.675248E0,1.08246E0,2.076716E3,9.0965466E2,4.310374E1,2.174565E1,6.4887188E3,2.7828708E3,8.233461E0,7.444327E2,2.2617574E2,3.0947409E0,1.6569733E1,4.0462135E1],"tree_param":{"num_deleted":"0","num_feature":"40","num_nodes":"31","size_leaf_vector":"0"}},{"base_weights":[9.948756E-4,2.8996719E-2,-2.4174165E-2,4.0995948E-2,-1.503796E-1,-6.10301E-2,2.7874937E-2,3.8802702E-2,1.1208631E0,-6.0177606E-2,-6.939054E-1,2.1702433E-1,-7.403754E-2,7.072737E-2,-9.835256E-2,5.6530107E-3,1.0668609E-1,1.1921713E0,3.524539E-1,-1.437281E-1,5.40912E-1,-1.4554245E0,-3.3303615E-1,2.5753444E-1,-2.0027974E0,-2.1219258E0,-7.195789E-2,-3.216835E-1,8.937557E-2,-5.7002354E-2,-5.951772E-1],"categories":[],"categories_nodes":[],"categories_segments":[],"categories_sizes":[],"default_left":[1,1,1,1,1,1,1,1,1,1,1,1,1,1,1,0,0,1,1,0,0,0,0,0,0,0,0,0,0,0,0],"id":44,"left_children":[1,3,5,7,9,11,13,15,-1,19,21,23,25,27,29,-1,-1,-1,-1,-1,-1,-1,-1,-1,-1,-1,-1,-1,-1,-1,-1],"loss_changes":[9.814969E0,1.4188498E1,1.4069208E1,1.4620117E1,2.025256E1,1.5529142E1,1.6445288E1,1.3875724E1,6.417227E-1,1.7807922E1,1.6109457E1,1.7271282E1,1.743739E1,1.6609467E1,1.58201885E1,0E0,0E0,0E0,0E0,0E0,0E0,0E0,0E0,0E0,0E0,0E0,0E0,0E0,0E0,0E0,0E0],"parents":[2147483647,0,0,1,1,2,2,3,3,4,4,5,5,6,6,7,7,8,8,9,9,10,10,11,11,12,12,13,13,14,14],"right_children":[2,4,6,8,10,12,14,16,-1,20,22,24,26,28,30,-1,-1,-1,-1,-1,-1,-1,-1,-1,-1,-1,-1,-1,-1,-1,-1],"split_conditions":[1.5E0,1.35E1,1.4584482E-1,2.65E1,3.35E3,1.35E1,3.7E1,2.5E0,2.2417262E-1,9.5E0,3.025E2,6.5E0,1.465E2,1.5E0,2.5E0,1.1306022E-3,2.1337219E-2,2.3843427E-1,7.049078E-2,-2.8745621E-2,1.0818239E-1,-2.9108492E-1,-6.660723E-2,5.1506888E-2,-4.0055948E-1,-4.2438516E-1,-1.4391579E-2,-6.43367E-2,1.7875114E-2,-1.1400471E-2,-1.1903544E-1],"split_indices":[33,35,28,39,16,4,10,1,0,34,11,21,11,3,38,0,0,2147483647,2147483647,0,0,0,0,0,0,0,0,0,0,0,0],"split_type":[0,0,0,0,0,0,0,0,0,0,0,0,0,0,0,0,0,0,0,0,0,0,0,0,0,0,0,0,0,0,0],"sum_hessian":[1.3926093E4,6.592257E3,7.3338354E3,6.1790244E3,4.1323273E2,4.2936704E3,3.040165E3,6.166579E3,1.2445109E1,3.5449533E2,5.8737404E1,1.9180054E2,4.10187E3,2.2697322E3,7.704327E2,4.1434277E3,2.0231514E3,1.1342188E1,1.1029214E0,3.112941E2,4.3201218E1,1.881023E1,3.9927174E1,1.8842628E2,3.3742607E0,4.086334E0,4.0977837E3,1.02894936E2,2.1668374E3,7.1132544E2,5.9107258E1],"tree_param":{"num_deleted":"2","num_feature":"40","num_nodes":"31","size_leaf_vector":"0"}},{"base_weights":[9.5152674E-4,-6.92377E-3,8.7668754E-2,-1.9540566E-3,-3.288137E-1,9.634615E-2,-1.6244956E0,-1.3789973E-2,7.333228E-2,-5.706417E-1,8.2863815E-2,1.0496268E-1,-9.565274E-1,-6.194217E0,-5.8525413E-1,-1.5659474E-2,5.9371036E-1,1.6412693E-1,-4.0973082E-2,-3.0239588E-1,-1.0946198E0,9.4402826E-1,-7.928991E-2,1.2373758E-1,-2.448773E-1,3.48051E-1,-2.7635114E0,2.7465212E-1,-2.6932046E0],"categories":[],"categories_nodes":[],"categories_segments":[],"categories_sizes":[],"default_left":[1,1,1,1,1,1,1,1,1,1,1,1,1,0,1,0,0,0,0,0,0,0,0,0,0,0,0,0,0],"id":45,"left_children":[1,3,5,7,9,11,13,15,17,19,21,23,25,-1,27,-1,-1,-1,-1,-1,-1,-1,-1,-1,-1,-1,-1,-1,-1],"loss_changes":[9.501697E0,2.0398798E1,1.720514E1,1.1191394E1,1.931004E1,1.0454658E1,2.741641E1,1.2321719E1,1.7709291E1,1.7133865E1,1.0038464E1,7.5102644E0,2.2138203E1,0E0,8.836106E0,0E0,0E0,0E0,0E0,0E0,0E0,0E0,0E0,0E0,0E0,0E0,0E0,0E0,0E0],"parents":[2147483647,0,0,1,1,2,2,3,3,4,4,5,5,6,6,7,7,8,8,9,9,10,10,11,11,12,12,14,14],"right_children":[2,4,6,8,10,12,14,16,18,20,22,24,26,-1,28,-1,-1,-1,-1,-1,-1,-1,-1,-1,-1,-1,-1,-1,-1],"split_conditions":[3.05E1,2.35E1,7.067543E1,5.85E1,4.025E2,1.495E2,7.32815E1,6.793448E1,2.5E0,2.885E2,4.41E2,3.415E2,1.55E1,-1.2388434E0,2.2910689E2,-3.1318949E-3,1.1874207E-1,3.2825388E-2,-8.194617E-3,-6.0479175E-2,-2.1892396E-1,1.8880565E-1,-1.5857983E-2,2.4747517E-2,-4.897546E-2,6.96102E-2,-5.527023E-1,5.4930426E-2,-5.386409E-1],"split_indices":[26,26,18,23,32,27,18,13,33,29,32,29,2,0,28,0,0,0,0,0,0,0,0,0,0,0,0,0,0],"split_type":[0,0,0,0,0,0,0,0,0,0,0,0,0,0,0,0,0,0,0,0,0,0,0,0,0,0,0,0,0],"sum_hessian":[1.3911947E4,1.275366E4,1.1582871E3,1.2559846E4,1.9381438E2,1.1525159E3,5.7712846E0,1.0853701E4,1.706144E3,1.2209271E2,7.172167E1,1.1432303E3,9.285515E0,1.0052832E0,4.766001E0,1.0820485E4,3.321615E1,9.508924E2,7.552517E2,8.083559E1,4.125713E1,1.1322947E1,6.0398724E1,1.0850701E3,5.8160225E1,5.4209404E0,3.8645744E0,3.4235713E0,1.3424298E0],"tree_param":{"num_deleted":"0","num_feature":"40","num_nodes":"29","size_leaf_vector":"0"}},{"base_weights":[9.339124E-4,5.983143E-3,-1.2712035E-1,-2.633566E-2,3.0899473E-2,-1.4729413E-1,9.312134E-1,-5.691295E-2,4.1797467E-2,5.042872E-2,-5.9619263E-2,-1.7773362E-1,4.7703123E-1,-4.1378024E-1,1.1049291E0,-3.9688285E-2,-2.9205552E-1,5.912061E-2,-4.7912616E-1,7.5007275E-2,-4.4214413E-2,-1.2425941E-1,1.0323471E-1,-4.7228122E-1,-1.15046576E-1,9.8025197E-1,-7.4697787E-1,1.2060218E0,3.0729946E-1],"categories":[],"categories_nodes":[],"categories_segments":[],"categories_sizes":[],"default_left":[1,1,1,1,1,1,1,1,1,1,1,1,1,0,1,0,0,0,0,0,0,0,0,0,0,0,0,1,1],"id":46,"left_children":[1,3,5,7,9,11,13,15,17,19,21,23,25,-1,-1,-1,-1,-1,-1,-1,-1,-1,-1,-1,-1,-1,-1,-1,-1],"loss_changes":[8.989106E0,1.0772232E1,1.1261481E1,1.2132266E1,1.3353476E1,9.839105E0,2.34278E0,1.627629E1,1.6275501E1,1.4454186E1,1.4111874E1,9.104294E0,1.4874966E1,0E0,6.662483E-1,0E0,0E0,0E0,0E0,0E0,0E0,0E0,0E0,0E0,0E0,0E0,0E0,0E0,0E0],"parents":[2147483647,0,0,1,1,2,2,3,3,4,4,5,5,6,6,7,7,8,8,9,9,10,10,11,11,12,12,14,14],"right_children":[2,4,6,8,10,12,14,16,18,20,22,24,26,-1,-1,-1,-1,-1,-1,-1,-1,-1,-1,-1,-1,-1,-1,-1,-1],"split_conditions":[3.145E2,1.885E2,2.675E2,6.5E0,1.5E0,3.395E2,-2E0,6.9280176E0,3.2739655E1,3.235E2,9.956896E-2,-1.5E0,1.712931E0,-8.275605E-2,2.2098581E-1,-7.937658E-3,-5.8411103E-2,1.1824123E-2,-9.582523E-2,1.5001455E-2,-8.842883E-3,-2.4851883E-2,2.0646943E-2,-9.445625E-2,-2.3009315E-2,1.9605039E-1,-1.4939557E-1,2.4120437E-1,6.1459895E-2],"split_indices":[17,32,5,30,38,17,36,13,6,19,20,29,0,0,5,0,0,0,0,0,0,0,0,0,0,0,0,2147483647,2147483647],"split_type":[0,0,0,0,0,0,0,0,0,0,0,0,0,0,0,0,0,0,0,0,0,0,0,0,0,0,0,0,0],"sum_hessian":[1.3904363E4,1.3377044E4,5.273195E2,5.8232896E3,7.5537544E3,5.1752234E2,9.797171E0,4.0195317E3,1.8037576E3,6.2133716E3,1.3403826E3,4.935246E2,2.399772E1,1.103346E0,8.693825E0,3.7453025E3,2.7422925E2,1.7457815E3,5.797615E1,4.932528E3,